1941 128
心 -2.835119 2.435684 1.448543 2.074644 -0.953075 -3.843936 -1.291631 -0.170995 -2.082310 -0.399948 -1.267851 0.572182 -1.643341 -2.793454 -0.796438 0.208723 -1.584336 0.626973 0.409642 -2.822569 -0.313918 1.298190 -0.346428 -1.631813 1.445308 1.958769 -0.160863 0.387645 -3.364788 -2.212966 1.380000 -2.107401 -1.347846 -0.682422 -1.661009 -1.876109 -0.701715 1.594386 0.242138 0.093694 3.456290 -4.206188 -0.824901 -0.558905 0.904111 2.297517 1.553718 -0.014101 1.921578 -0.028024 -0.384503 0.035963 -0.501277 -2.711885 -2.976304 -1.570367 -0.697553 0.555164 -0.849253 0.102000 4.489387 1.756227 0.124682 0.098661 -1.071008 2.295132 -0.480460 -1.139298 -1.473407 -0.343270 -0.974565 -0.735924 -1.171809 -0.349603 0.197317 0.046479 0.097222 2.026507 2.341666 -0.738896 -0.887252 -1.165512 0.392557 2.258013 0.411149 -1.178357 0.411349 0.021753 1.869521 3.043317 -3.010890 -2.209204 0.485706 0.840918 2.584868 -0.395640 1.862082 1.566576 -4.068913 -1.154306 2.059921 1.319771 1.150873 2.866223 0.022144 0.770850 0.369837 2.080884 0.071156 -2.355285 2.016543 -2.693993 -0.352946 -0.564194 0.956155 0.553334 1.145144 4.058471 -0.716101 -1.487847 1.936110 1.737219 3.807896 2.595666 -3.411430 0.117800 -0.044044 -1.929080
血 0.172823 2.685292 1.433705 4.888964 0.893114 1.010359 -0.943620 0.049392 2.605838 1.664600 3.525321 -1.637413 -3.601802 -1.951289 2.592799 1.939447 -2.301707 -2.179905 -2.659769 3.975116 -1.898910 0.277775 0.804406 -0.263978 -1.397744 -1.308063 0.860621 -2.891633 -0.318371 -0.776797 1.595181 0.463228 -0.289457 2.470534 2.314240 1.489515 0.323493 3.054198 -0.199871 1.915331 1.509975 1.017633 1.541629 -2.287301 -1.767771 -3.202104 1.774507 -0.056153 -3.613473 -0.995386 0.993278 -1.783925 -0.537315 -0.463023 1.036724 -1.888371 1.531132 -0.185457 -1.454129 -0.233730 -0.659644 -1.723447 -0.940084 -1.569460 2.526738 -1.310109 -1.326404 -1.218792 -1.668041 -2.772637 -2.419588 -2.390291 -0.037343 1.981397 -0.166428 0.839054 -0.147430 1.495823 0.118013 0.924085 -2.085899 0.642414 0.503138 -0.375838 1.546036 -2.996836 0.729266 1.071285 0.881476 2.099246 2.915885 0.090000 1.268548 0.963436 -1.206296 -1.355329 0.229929 -1.405254 0.458575 2.043552 0.247854 1.282685 -2.364563 -0.412944 0.380832 -0.964744 1.898108 1.359608 -1.377326 -3.277476 -0.638418 -2.437343 4.342506 1.512632 0.792913 3.465627 -2.741318 0.981669 -0.646652 1.045617 3.828163 -0.577499 2.644629 1.302204 -3.876046 -0.441402 -0.845296 3.097837
性 -0.949542 0.561940 3.897435 2.510653 -0.424136 -0.038188 -1.526915 0.599115 0.178786 2.361785 -1.131704 1.519763 -0.371785 -2.584427 -2.111746 1.667352 -3.588630 0.666441 1.417191 -1.316813 1.292600 -0.396275 -2.635349 -0.936487 0.409415 -0.330154 1.324413 -0.375330 1.354493 -0.881562 -0.730417 -1.334640 -0.681427 1.614679 -0.431729 1.745588 0.843915 2.414310 3.327526 -2.177983 1.755490 -1.559398 -3.978538 1.232759 2.351154 -1.847686 2.395048 1.925501 2.081015 -1.528491 0.917004 -1.990677 -2.145769 -0.636713 -2.648731 -1.578242 -0.284384 2.455682 -0.155536 -1.097998 0.680977 1.469766 -1.745805 2.609769 -1.292346 2.867716 -1.136141 0.969042 -0.811644 -0.994157 -3.366789 -1.078267 -3.631212 1.013655 3.717366 -1.094380 -0.939051 2.245673 0.679055 2.239351 -3.003244 2.185184 1.989630 1.644557 1.745705 2.310793 -1.063865 -1.473396 -0.781184 -0.240360 -0.611209 3.451378 -0.597486 3.354449 -0.897480 -1.268934 0.188613 -0.191623 2.133888 0.466300 0.429312 -1.731329 2.676179 -2.369257 -0.103869 0.993248 -1.253040 1.409311 -1.623254 1.753463 -0.226667 -0.955440 0.502343 0.966721 -1.938101 -1.314760 0.453949 -0.151951 -0.911196 -1.564669 -1.524109 2.525156 1.700269 -0.299142 -2.172670 0.753644 1.830112 3.515380
次 -0.189775 -2.167417 -4.903350 -1.151363 -0.508634 0.336708 -1.412052 0.788404 0.691089 -1.007684 1.334498 -1.843693 -1.064466 -2.263146 -0.341258 1.233396 -1.525964 -0.090338 -4.705807 1.203989 1.125843 -0.297248 4.092205 -1.992168 -0.041319 2.585916 -1.641034 2.159009 1.784832 1.491176 3.125290 -3.398860 1.385948 -2.007342 -2.862237 -0.106663 -2.439116 0.161794 -1.555606 -0.160308 -0.074375 -0.249480 0.389150 -2.368222 2.973460 -2.128343 -0.753857 -0.883946 0.738007 3.115357 -2.125719 -1.738299 0.685575 0.418125 -2.721318 2.039778 -1.473103 0.669001 -0.615635 -2.413662 -2.558672 2.660866 -0.314160 -0.876153 -0.901625 2.301774 -0.713641 -0.424087 -2.223144 1.494388 1.826224 3.068194 -0.720155 -3.166377 0.311557 -1.706189 1.138262 -2.003104 -0.077067 0.883977 0.467640 -0.791022 -1.841917 0.562450 2.641895 -1.633138 0.740323 3.010256 1.032796 -3.285401 0.376703 0.823770 1.026035 -1.277193 0.747667 0.043371 -1.907037 2.276781 0.347962 3.507883 -0.645325 0.189740 0.787919 2.880600 0.847094 1.241733 -2.911412 2.587232 -3.487993 2.241385 2.679964 2.468175 -4.641406 0.292127 -1.441334 -4.177568 2.898107 0.039516 -2.317782 -0.407338 -0.725473 0.122852 2.774802 -1.676223 4.068270 -1.816388 -0.142434 -1.349280
音 -0.018118 -0.840695 1.575224 -0.258899 -0.858817 -2.860637 4.854095 -3.920070 2.226879 -1.528512 -0.007070 2.138730 0.896490 -4.960414 -1.541473 -1.831219 4.418855 -2.119716 -2.175131 0.059868 -2.693384 5.325107 -0.388275 -2.786919 -1.116655 -1.388012 2.910270 1.699186 -0.726787 -0.293611 -3.175860 1.346485 0.167613 1.682445 -3.283043 -0.223242 -0.982223 5.576965 3.043069 -0.726740 0.313667 -1.626664 0.905640 -4.731511 0.766851 -2.282315 2.592081 -0.455933 -0.461390 1.418000 -2.998306 0.986831 -1.520240 -1.111497 -2.475009 -2.179035 -4.188701 3.376840 0.363860 -2.542054 0.342655 1.384163 0.664207 1.505112 -2.434271 2.647670 0.297058 -2.938437 0.418646 0.097592 -0.649072 -1.042327 -0.570089 0.842940 1.027914 -0.707262 1.581058 -1.651391 -0.024174 0.329333 1.222517 -0.301798 0.303498 -1.557820 1.668717 2.388341 -1.974143 3.088472 -3.274530 -1.004414 2.333023 0.619587 0.439529 1.517109 1.825522 -0.515551 -1.394594 -2.593313 1.062805 -0.358648 -1.778437 1.033101 -0.418581 5.757176 -5.020632 1.622905 -0.189409 2.591876 -0.612379 1.551102 4.089174 3.138775 -1.583328 -3.817549 -1.196841 -0.447067 4.162838 2.420198 0.920721 -2.980095 -1.266747 2.236426 -2.572441 2.313873 1.335672 -1.223883 0.919443 -0.716080
诊 1.852633 2.000881 2.432333 3.706799 -1.837211 -1.013852 0.208228 -2.371610 3.274789 -1.138184 1.752364 -2.531815 -0.005024 1.585553 1.328055 0.272812 1.173081 0.308791 1.259666 1.543662 2.426267 -3.076635 -2.150351 -1.977383 1.214173 -0.215607 0.292275 4.863664 0.916227 0.406178 2.193601 2.876870 -0.776322 0.384750 -2.136903 -0.745490 -1.884481 0.829304 2.296223 1.353557 4.001186 -2.382384 -1.883389 3.747477 0.842191 -2.671096 -0.587121 4.459493 -0.455227 1.935087 -0.884124 1.186606 -1.390772 -2.499197 -0.807622 1.421617 -2.200601 4.692503 -1.085950 -1.142907 4.634681 2.452937 0.068155 -1.492163 0.259584 2.517715 -2.359195 -1.833308 0.212500 0.889283 -0.660364 -0.917889 2.985845 2.344891 -3.658828 -1.366837 -2.338481 3.438152 1.855027 -3.591411 1.076216 2.980241 -2.685233 1.500011 1.997371 -1.829787 1.521567 0.326155 0.887212 0.345298 -1.604404 -2.757822 1.141850 -0.646248 0.720457 0.728276 0.847988 -2.387602 1.527781 1.376215 1.632959 -3.344403 -1.159096 1.491295 0.937795 0.795595 -0.562461 1.675287 1.781839 2.170764 1.594420 2.269258 3.121974 2.079442 -0.977191 -2.395818 -1.113175 -0.823061 0.097303 1.329602 1.551410 1.750085 -0.631666 1.647038 2.736900 -0.793431 -3.606802 2.543616
动 -0.459108 -0.680429 -2.356824 -1.434123 -1.436078 -3.353746 -3.450608 -0.160189 0.681500 3.850602 2.267544 -3.244453 -2.568223 -0.508390 -2.355432 0.076983 3.027112 1.528856 -1.294498 -1.265025 -0.262999 -1.110696 0.635879 -0.926983 2.172164 -1.390014 2.320230 1.190366 5.028985 3.433990 -1.169224 -0.196939 2.696621 -4.961968 0.219349 2.781312 -3.892054 -1.561339 -1.219481 -4.066078 -2.018141 -0.468818 0.400015 -1.726188 0.715373 1.594512 -0.178288 -3.667862 1.548313 2.449223 0.941765 2.030640 1.413609 -4.237526 -0.712590 -3.874314 1.264295 0.609151 -3.314406 -1.860076 -1.617109 1.399203 -2.514811 -3.180043 -2.493798 3.018747 0.440628 -3.388810 0.258852 -1.795848 -0.784244 -1.256476 -2.374158 1.113508 2.280666 -3.319802 -2.267765 1.002226 0.285306 1.332755 -1.799634 1.054635 -0.677771 -0.453204 1.890411 0.364684 -1.391243 3.545229 -2.068448 3.319566 -1.314353 1.182093 -2.625947 -2.963795 -1.589775 -1.343274 2.012709 -0.680413 0.740593 2.431718 0.301683 -0.197966 -0.192275 -3.389968 -2.223106 -0.894648 1.518950 0.522312 0.895995 1.664672 0.502642 2.024642 3.975619 -1.334360 -2.864750 -0.472933 -5.645229 -1.293171 1.823639 3.452471 2.186944 -3.426020 -1.994683 0.007705 -2.091288 1.316534 -0.209795 -0.901869
病 -1.128898 2.763846 0.983773 4.997827 1.552186 -0.560295 1.800593 -0.883533 3.300148 -5.677408 2.964981 -4.328547 3.176388 -2.291798 -0.178470 -0.238284 1.938433 2.556935 3.626172 0.522445 1.953981 0.789613 -2.721863 -0.683555 1.821880 2.935988 4.930114 -2.575520 -0.553762 -2.139611 3.536716 -0.361332 1.639749 -0.171979 -0.052892 3.351428 0.563540 0.407094 3.011661 0.326996 -1.727676 1.662369 -1.985762 0.862808 -2.025633 0.926695 -1.547719 -0.214042 1.050633 0.300342 4.675090 -0.037651 -1.199534 0.840588 -3.848820 -3.218948 -1.781092 2.819831 1.423042 -1.777588 -1.253800 0.858255 -1.692998 -4.047398 -1.880770 1.392255 -1.009495 0.820296 -2.023878 -0.551501 0.900298 -1.235249 0.778241 -0.629228 0.477118 0.493550 -1.987486 0.876903 1.478182 3.297918 0.161941 0.291806 0.516436 3.531986 0.939567 1.642113 0.117777 0.611592 -0.189859 2.412915 -0.607124 -1.692349 -1.823703 2.190085 0.127683 0.930558 3.634948 -2.601508 0.832396 -1.444961 3.979358 -0.799501 0.363532 -1.584309 -4.464171 1.674618 5.942407 0.038284 -1.007486 -0.922975 -1.535705 -2.538349 -0.663539 1.232804 0.745856 3.972614 -0.826703 -2.603469 -2.557998 -0.371691 0.835029 1.580804 0.225392 -5.113338 0.749706 -0.168878 3.470172 2.950233
查 1.009174 4.724147 0.420255 6.398126 0.376161 -0.800955 -1.192669 -1.687508 0.050926 -0.474233 0.218211 -0.875977 1.765346 -3.608722 1.687240 1.781295 -0.798616 -0.214896 -2.255949 -3.413891 -0.049585 -2.054009 2.331119 -4.996777 -2.897784 0.445732 0.436133 1.216786 1.655926 -0.394172 0.922578 1.381396 -3.248024 -4.305748 0.282915 0.268954 -0.130864 0.272866 1.639573 -1.861316 3.133870 -0.349324 2.664187 1.724985 0.104075 0.315124 1.360949 0.887783 1.086098 1.339883 0.029698 4.526192 0.926836 1.383385 -2.566053 1.353321 3.470569 4.424665 -1.497904 -2.677042 -0.902820 -2.056908 3.555072 0.430572 -0.817766 1.616958 1.475816 -1.761492 -0.276801 -0.402036 2.182559 -2.150462 2.167048 0.945163 -1.006704 -0.901797 1.325276 -3.814556 -1.618192 -0.367578 -1.195023 -1.053328 -2.131814 2.500652 -0.104229 0.531164 -0.060881 0.906771 1.878357 -4.111412 1.952975 0.051868 1.721553 -1.619976 -0.993388 1.730034 5.005075 0.312364 4.497512 -2.639237 1.883363 -0.702026 -3.490824 -2.557288 4.506161 -4.445360 -1.347363 -0.776487 -0.731380 -3.268284 1.195554 0.770778 -2.964714 -0.604068 -3.108509 -1.555309 -2.985064 2.184744 2.086292 3.522947 2.167510 2.746228 0.806365 -2.735360 0.878422 -1.387388 -5.352098 4.962941
未 -1.239492 2.556650 -1.990327 -0.445040 -0.594387 -3.642111 1.507459 0.176601 -3.773582 0.889447 -1.207537 2.837962 -1.513272 -1.141569 -0.380005 -0.443979 0.642393 1.440078 0.439824 4.764716 0.896428 0.010337 -1.332002 -1.741343 -0.983643 1.916647 1.902517 -1.042476 -2.360083 -2.624568 -6.142690 0.365516 0.418345 0.377922 1.515414 -2.602343 -3.035931 1.166459 -4.615903 -1.418086 0.728652 -2.020611 2.915516 -3.645105 3.233949 -1.652043 3.787849 0.363775 -0.837994 0.391794 2.578918 -0.851846 0.128183 -0.231229 -2.880162 -3.330974 -2.299180 -0.215295 -4.423022 0.525597 0.303646 -0.471710 -0.780768 -1.463274 -2.309115 2.857133 3.607768 -0.012754 -0.563480 -2.141814 0.187866 -2.622895 -1.613478 2.555565 0.250377 -2.842426 -0.233274 -0.404462 -2.050747 -0.458087 3.629939 -2.584389 -0.039698 -0.897874 -2.053885 -0.692925 1.284348 -4.709284 1.092518 -1.725190 0.781558 2.315598 -2.595684 0.374081 0.168806 3.776580 -1.082289 -1.260999 -1.554276 -0.103687 2.190389 -3.184507 -4.550512 1.496607 -2.126637 -2.540102 3.364792 2.485721 -0.208955 1.215597 -0.843991 3.670143 0.257519 -2.980910 -0.738014 4.093386 3.172216 1.016668 -1.610443 -2.341519 -0.143035 -2.191141 0.137452 3.310232 1.588101 -3.500182 -0.810578 4.619580
双 0.086703 3.199921 2.434153 -0.430815 -0.121829 -0.039095 -3.325761 -2.307473 -0.561962 5.655881 1.049430 0.825848 3.996596 -1.295702 -0.295218 0.138139 1.601487 1.402385 -1.460261 -0.802673 -0.587809 -0.138615 -2.212880 -1.465693 0.427572 0.896782 0.705963 6.114046 2.579444 1.218425 -1.736678 1.860099 -0.198947 3.015851 0.772389 -2.980692 0.045580 3.320090 -1.950301 2.810558 1.944802 1.399311 3.266802 -3.073403 2.146097 2.782947 -3.099005 0.294770 2.416462 -3.906301 -4.350403 -2.947536 -0.760299 -3.415487 1.485605 -1.627719 -0.030764 3.030679 0.334700 1.327960 2.049438 -1.194387 -0.220458 -0.481456 -0.957387 0.711684 4.154553 -0.643012 1.009252 -2.086672 1.543901 -0.336452 0.415996 2.846469 1.044478 -3.494969 0.617121 -0.138859 0.289223 0.896161 -0.299124 0.391728 -0.525556 -4.047131 -0.127150 1.638882 -2.460108 -0.379038 2.790438 0.190221 -1.832404 1.142055 -5.206090 1.166910 -1.838122 1.475063 0.251577 -3.023837 -0.684838 0.450977 -0.004972 -1.669332 2.156909 -0.165912 -3.988866 -1.974006 0.971516 1.462966 -1.644377 2.487969 -0.039637 3.633062 -2.664994 -1.627530 -1.879212 1.398272 -0.557850 -1.255077 -4.076939 1.499699 -1.479099 -2.190898 2.438949 -1.894102 -4.956340 -0.521472 6.015928 1.186656
脉 -3.027359 1.246771 -2.683781 1.798720 -0.919937 -4.014654 -3.797156 1.420546 0.850792 -0.333523 -1.956402 0.423831 7.370522 1.683723 -0.370207 -1.952255 -0.199407 7.103434 2.686954 1.321854 -3.587161 0.660142 -0.196585 4.240530 -2.094691 0.902261 -0.083304 3.525512 -1.703303 1.013052 -0.467568 3.884748 -1.107149 -1.646326 -0.381038 0.864499 0.806523 1.429488 -2.310963 1.976202 -1.081677 -0.512368 -1.030239 -1.021504 4.206737 -0.323904 1.134427 -1.606361 1.756376 -1.818312 -0.902241 -2.238666 1.938064 -2.548670 -3.789499 -0.431162 5.138395 4.971276 -1.113415 -0.898575 0.189752 0.254239 1.599415 -1.881061 0.286540 -1.841728 -3.923182 -2.224379 0.705581 0.149486 -1.769175 1.322702 -0.362718 2.354073 -4.311136 -3.803625 3.784618 -2.982502 1.389012 4.040767 -0.543446 -0.093852 -1.337265 -1.451032 0.172176 -3.047336 -3.683380 -4.721200 1.603286 1.098378 1.305181 -2.239085 0.098396 3.708865 2.996212 -3.573134 -0.650973 -3.588798 2.696908 -1.203609 1.740093 0.399043 -1.021878 1.108334 -2.875798 -1.437733 -3.752288 1.669705 3.096812 3.635309 -1.590641 -0.818086 0.804107 -2.693088 -1.778553 -0.215357 -0.290594 -0.118090 1.556942 -3.753432 -1.665150 2.105568 4.358922 -4.033409 0.207227 2.245344 0.278443 -1.292705
分 -0.552827 -0.176686 -0.027367 -1.023265 -0.437512 0.734976 -0.260744 0.084408 3.458655 4.181125 -0.631451 -0.184325 -1.805910 -1.726970 -0.447981 -0.506060 2.339302 0.334272 -1.014134 0.250233 -4.601012 -1.790887 -0.070773 0.394145 0.018673 1.192212 1.199689 1.453633 2.074345 1.109006 0.519693 2.567923 -1.709398 -1.113332 -0.645937 0.294103 -4.898895 2.343059 -2.513336 -1.683548 -0.688382 -2.801027 -4.290018 -5.131580 4.132545 1.222748 -1.776874 4.580369 -0.512528 5.538529 -0.300576 -1.713283 -2.040971 -1.594266 -0.451243 0.353018 -0.776029 0.536601 -4.129814 -1.565907 0.609431 3.484044 2.198909 -0.734603 1.922674 3.678928 0.246037 0.760581 -0.885317 0.406816 -0.215545 0.124901 -1.379128 0.062081 2.142623 0.680806 1.145910 -1.774760 3.477370 -0.237696 -3.431577 0.287495 -1.057744 -1.692148 1.148282 -0.992511 -5.624393 0.125152 -1.804214 -3.302224 3.646515 -1.938601 -4.119613 -0.879457 -2.019050 0.526791 1.425117 4.579638 0.079512 1.227771 -0.136645 0.531255 -0.866202 3.020904 -1.882899 1.599330 -4.147931 -0.289111 -0.994505 -2.119493 -1.463907 -0.961169 -2.669929 -0.554888 -1.478541 0.003338 2.433610 4.207215 -0.380897 0.295394 0.325000 0.621402 0.886991 -1.783991 1.759317 -5.016067 -0.242658 -2.143382
痛 -0.610622 1.978209 0.279440 3.579667 -3.994988 -4.399258 3.751930 1.410430 -3.450963 -2.114986 -0.212121 3.685322 3.053774 2.757009 -0.462202 2.611584 0.110884 0.331328 2.128391 -0.836512 2.611067 2.779568 0.418931 -0.386186 1.604358 1.695535 0.294578 1.205577 -0.718986 -1.991349 2.357749 0.844577 2.649339 0.372645 0.406051 2.542056 1.564869 2.342825 -1.392910 -2.537525 2.952253 1.672207 -0.130273 3.280395 -0.600478 0.004854 1.040919 0.163397 -2.117749 2.968666 1.429445 0.836401 -5.885134 -1.888433 6.268666 -0.887374 -0.718717 4.079144 -0.056275 0.192488 1.675003 2.446188 -0.361904 -1.347281 0.386264 -0.019177 2.304022 0.267035 -1.234716 0.713384 -2.421387 2.919255 -0.751515 1.083515 2.835737 -0.060713 1.734444 1.898471 1.948833 -1.976409 -0.338671 3.510334 -0.141551 -4.436106 1.928860 0.018262 1.709560 1.668119 -6.618010 2.131968 -1.757172 2.412103 1.429756 1.551149 0.930945 -3.460860 -0.290009 -3.837849 4.317476 1.557960 0.751534 1.719802 -1.948993 0.217273 -1.641677 -4.831482 4.205481 0.760724 0.726465 0.821127 1.687922 -1.185986 0.333198 -1.419742 -0.517938 -3.040455 1.184851 -0.673352 1.468666 -1.083864 0.777201 0.331315 -2.556643 2.903137 3.227506 -2.561630 4.712201 0.341571
白 0.194377 -0.763116 1.347784 0.680469 -0.055725 3.389952 -3.473881 0.069892 -0.370124 -3.118738 2.090235 3.866626 -3.061651 0.840202 0.915018 -1.330171 -3.963872 -3.339657 0.499549 0.969544 -0.157926 -1.477800 1.156851 0.157363 -2.986089 1.863629 -0.614945 -0.883345 1.015690 -1.688788 0.955155 0.166877 -0.196524 0.394513 1.868155 1.678806 -0.074369 0.006526 -0.845683 2.252514 3.854921 0.883285 0.597283 5.391732 -2.940144 -0.780904 1.901101 1.630665 -0.965116 2.823289 -1.681884 0.743591 1.160780 -1.517776 -1.473151 0.334441 -1.266989 0.436499 3.706813 1.376691 0.700483 -2.914228 1.246786 0.615401 4.588937 -2.741010 1.694490 0.408957 -0.748354 -3.702671 -0.531204 -2.283278 2.213759 1.421805 0.915689 0.391451 -0.548254 -0.306216 -0.538217 3.269360 0.687221 -1.573306 1.051175 -1.566338 0.499141 0.719820 -0.994464 -1.455451 -0.516908 0.532631 3.893735 0.066635 0.121417 -0.319493 -2.113128 -3.387740 -2.071872 2.237405 1.100239 0.577738 -0.097287 2.223139 -2.562255 -4.351962 2.096304 4.238867 0.385899 -0.935811 1.354422 -1.167682 -2.494752 0.620378 2.696474 2.315926 0.984729 0.810366 0.267318 2.267203 -3.826674 0.706214 0.684826 -2.142135 -2.171327 1.765854 -3.850823 -0.569039 1.039707 4.052269
压 2.329340 -2.833167 0.085417 -6.293682 -2.418361 0.974782 3.435739 0.063718 -3.299844 -0.209791 -2.151908 0.319836 0.659637 -5.152810 6.099924 0.669692 0.271034 -0.697097 3.373255 0.743950 -3.961168 -1.295076 -1.803531 -1.041853 -0.236042 0.285669 2.986053 1.226236 3.160105 -0.206540 2.797550 -0.301749 -2.112570 -0.778314 -0.993794 -0.985866 -1.142109 0.527011 0.910310 4.825063 1.703835 -3.668489 -2.430303 1.977977 1.114186 1.789505 2.892601 0.251617 3.358974 -1.112014 2.833751 -1.114646 -2.124500 -2.446889 -2.978275 0.487612 -0.971981 3.879426 1.539543 -1.709860 -2.538793 0.931600 -2.816100 2.048254 -0.405252 -0.801202 -0.258130 1.166547 -2.665779 -0.461736 -1.916177 0.605414 1.010141 -1.183903 0.950669 -2.684086 -0.088487 3.514893 1.458930 -1.188823 3.155553 -1.583029 1.831244 2.597107 0.519086 2.763618 0.488637 0.977072 2.196814 -0.824098 -2.244839 2.090523 -2.192241 1.925131 0.581862 -3.032625 -1.553914 -2.410280 -3.271918 -4.230741 -2.859548 -0.012259 1.957570 -4.831272 0.070288 -1.327582 -0.675570 -2.575695 -0.758815 -0.329209 1.427808 -0.589506 2.963364 1.329920 -1.179021 4.645384 -1.078245 -0.200127 2.161827 3.613203 -1.926789 -3.111363 -0.947704 5.341038 -2.486747 -3.681102 1.027654 -2.051715
高 -4.473790 3.361770 -1.214433 0.469885 -3.692026 -0.540328 -5.396276 0.612473 1.599076 -0.957715 -1.357803 -0.218478 -0.945555 1.687000 -0.763091 2.457186 -1.622681 -1.764120 -1.340126 -0.308896 -0.537777 -0.977102 1.921736 1.616216 -3.341906 0.249762 1.338819 0.734008 1.450019 -2.645381 3.013027 3.191571 -0.351573 2.183630 -1.495581 1.202508 -1.541785 1.787361 3.105329 1.128401 2.533470 1.122755 0.691439 1.347703 -4.412917 -0.718992 -1.005952 -0.529585 3.885124 0.572076 3.050005 -1.302700 -0.877098 -0.376265 -0.854168 0.215734 -4.616911 0.592391 -0.389191 -0.339989 -2.242654 1.961470 3.873362 -0.101012 -1.011586 0.063142 -1.181521 0.263007 -2.355529 -2.942354 0.357222 0.628830 2.329473 1.866857 0.687139 -0.352268 3.626367 4.387495 1.319431 -2.482449 1.361015 0.267734 2.757911 -2.802698 -3.573115 0.467890 -0.262646 -0.614840 -4.036726 2.306581 -3.240024 0.279109 -1.405884 0.297990 -3.580729 -3.953202 -0.962953 0.385530 -0.850420 -0.494897 -0.515611 -1.616827 1.554890 1.380013 -0.802133 -0.312538 2.638126 -1.376583 -0.730455 -1.191608 -3.808858 -4.204608 -1.355992 -0.946775 -0.988921 4.342738 -2.490549 0.401136 -2.924718 4.848569 2.319258 3.252515 4.670102 -1.662870 3.024206 3.049694 0.716416 1.742731
能 0.784607 -2.754052 1.449942 3.128613 -2.680423 -0.184090 -2.663857 -2.060776 5.254582 -4.141978 -0.709399 -2.464135 -2.087821 1.276770 0.603748 6.971219 0.221984 2.897908 -2.859843 2.335432 -1.930302 0.247101 -2.732877 2.668998 -0.997292 -0.298630 4.884079 0.471481 2.680449 -2.585232 3.558923 -2.891084 3.342515 0.297883 4.377926 -0.112954 2.420805 4.076905 -0.782075 1.007416 2.982043 0.982296 0.691457 1.330449 3.798989 -3.387995 0.271973 2.713976 -1.904936 -1.140329 2.739733 3.797938 -2.739727 -1.135779 -1.131618 0.862170 1.276212 3.685336 3.734546 4.625387 -0.018993 -1.196729 1.367819 -0.130703 -0.284022 -1.828822 1.662182 -1.910481 2.087632 -4.511694 2.072535 -1.176823 0.609319 -3.387758 2.615700 1.230168 1.881239 0.664971 -2.741101 2.308994 -0.848612 -2.241120 -0.887634 -1.142691 -1.339846 0.591853 -1.009220 -2.524405 -2.011176 0.916886 1.539470 -1.862725 1.209085 0.382344 -2.738525 -5.151010 1.944146 -0.487427 -2.169836 -2.021492 5.758816 2.060743 3.547631 -3.486978 -0.550650 -3.619096 1.362897 -1.123333 -3.727859 -2.731964 0.956180 -0.388621 -1.170187 0.510124 -2.358455 5.623610 -4.301536 2.643846 0.305726 0.887600 2.969844 5.317585 -0.831184 3.292631 -7.082713 2.431468 -3.195866 -0.665498
服 3.840024 -2.347638 -4.599254 -0.040256 -1.093029 1.088251 -0.112449 2.196128 2.226469 -4.177473 0.654368 -1.932328 0.057650 -3.163337 1.175144 3.140885 1.286332 -0.173311 -2.666103 0.726369 1.958572 -2.137359 1.224371 -5.606770 -0.301852 -1.157247 -1.924433 1.572481 -6.521674 3.785151 7.010108 0.665002 -0.697748 -0.208286 0.672849 -3.886040 1.265732 0.500728 1.050788 -1.216179 0.714413 -0.566558 1.471356 -1.228633 1.381338 1.517828 -0.987246 2.311449 -2.331303 -0.328764 1.261816 -1.236071 -1.614840 0.912381 1.109176 3.817698 -3.960723 -1.043508 -0.664414 -0.692020 -3.690757 1.459056 0.992327 0.003710 2.618618 -1.828930 -2.020084 -1.427912 0.640862 -2.125711 1.428617 2.638316 0.079035 -0.333611 -0.248930 -1.642023 1.361424 -1.184907 -0.704863 3.027958 2.563525 -1.074233 1.721266 -2.243377 3.365758 -1.282943 0.938879 0.644670 0.439366 -1.996827 -0.964031 2.019508 2.361405 -0.170121 3.041310 3.240497 -3.371901 0.273718 0.947618 2.276563 -2.929884 -0.060569 0.820355 1.010037 -0.473096 3.983800 -1.721618 -1.201781 0.854958 -3.105175 2.992847 1.382755 -0.345643 2.357429 0.914852 -2.110812 2.874098 0.349804 5.031927 -0.585399 1.641055 -0.258816 0.335800 -0.244765 3.578678 1.342197 -0.360764 -3.067040
功 1.402056 -0.228902 3.916354 3.536551 -0.854867 -3.574955 -1.370271 -2.338706 -4.775932 -6.408622 -0.497215 -2.323735 0.147263 -0.801372 -0.980845 -1.224950 -0.184356 -4.656345 -0.012384 -1.893917 -1.487381 -4.183488 -3.774017 -3.213892 -2.727983 -5.199464 3.707399 -0.612031 3.020412 1.695214 3.618678 0.543665 -1.663211 -0.089085 -0.358880 1.669214 -1.102835 2.300203 0.649419 -2.632817 2.689454 4.321715 0.769759 -1.159911 2.771953 1.060738 6.753849 -0.480698 0.255032 -0.895534 -0.659052 -6.225448 1.638117 0.398275 -1.106577 1.884211 -1.204410 -0.355826 -0.178891 -1.082401 -0.490863 2.048995 2.407990 -1.369410 4.282568 -3.680135 1.752636 2.704552 -0.171663 0.481283 0.938025 -2.135463 4.161043 4.012938 4.158338 -0.230764 0.024876 2.162050 0.755945 2.459625 -1.711141 0.836622 -0.169612 -0.320253 -3.524399 -3.114837 -0.946281 0.159394 2.408084 4.344715 6.339722 2.535588 2.987972 5.328867 1.899242 -1.646719 2.642170 -1.468989 -0.443824 0.179300 4.113336 1.581378 -2.284580 -1.489039 3.114921 0.047478 1.724980 1.250292 -3.855058 1.708080 -0.476255 -2.658284 0.454458 1.478671 -3.140192 7.734619 2.012616 0.604377 -0.132462 -0.090501 1.715618 -1.025167 0.644811 1.487759 0.123360 2.011575 -1.873083 1.271197
胸 -0.482372 -0.359962 -2.223200 -0.561639 3.390653 -1.399057 -1.108065 -0.534789 -1.514168 -1.786917 2.079058 0.119669 -3.122230 -1.120955 -2.377833 -3.938924 -1.269775 1.092519 -3.028267 -2.097008 -0.283147 -4.927961 0.454830 -1.861756 2.331474 0.013210 1.481385 0.292957 -0.573422 -2.998120 -4.702245 4.122339 -5.062747 0.543995 1.756189 -0.353253 -1.605994 0.157383 1.933902 1.973275 -3.105317 -2.233470 -2.674964 -2.520401 4.363509 -4.398557 -0.526098 -2.267547 2.545710 -5.079068 -0.277787 2.461601 1.501038 -1.249151 2.644111 -1.871745 -1.541610 -2.404239 -1.852176 -0.750067 3.592887 -1.990557 4.817794 -1.137223 -1.676817 1.494393 4.062286 -0.215448 -2.777535 -2.721037 -0.420748 -1.214645 -0.735817 0.244790 -2.765117 -0.039629 -0.010077 0.699025 -0.725236 0.496423 1.679204 -4.111346 0.556491 0.783630 1.139815 0.762695 2.308747 -0.673525 3.120381 -2.714302 -2.860002 -1.622546 1.871701 2.154641 1.441155 2.943616 4.273833 3.925583 -1.609198 1.984808 -1.585076 -0.649507 4.586840 -1.053176 2.962282 -0.042472 2.008462 -1.754089 -1.319004 -2.156685 -2.764365 1.481920 -0.215183 -3.485499 0.178896 -0.742081 0.201074 -4.258667 0.278851 -0.107860 -0.589176 -1.012741 -1.848264 -0.068552 -0.188371 -0.622716 0.184045 -1.528061
腹 -1.423937 3.275193 -0.531922 1.464364 1.997012 -1.762160 1.974587 1.354882 -3.059240 0.553702 -1.724906 0.324795 0.254911 -2.216029 1.614407 -2.863589 -2.320834 2.086905 -1.923080 -3.755371 -2.310759 0.586700 -1.925768 -0.072014 -0.885398 -0.889154 3.534106 -1.049892 2.355145 -1.277088 -3.911490 -1.083253 -0.904770 -1.895475 -1.154012 -2.094605 -3.507515 3.272149 1.156054 0.412024 0.851025 -0.380615 1.630029 -4.056098 3.575260 -1.416055 0.932531 1.698135 -3.260101 -4.147398 -0.519359 3.364435 -4.337470 0.031351 2.674987 2.803682 -1.881190 4.672414 -4.905047 -3.899319 0.641610 -0.625670 -1.520021 -2.063981 1.375512 0.573199 1.852185 -0.004972 -2.450754 -0.709821 3.100338 -3.167044 1.301494 -0.882238 0.943082 3.348744 1.973807 1.156863 2.301740 -1.781815 2.717960 -0.136226 0.773468 -1.385762 0.647187 0.689697 -0.168994 -0.047809 -1.475299 0.233882 -2.424971 2.095856 3.536447 -0.486768 1.075833 -0.398454 -2.923433 0.301859 1.571732 0.627334 -1.642535 -2.448403 6.442646 0.534173 -0.978683 -0.244732 0.890330 0.488017 -0.042685 -2.689388 1.653962 -1.247575 -1.429531 -1.145237 1.407880 1.913230 0.569983 -0.662465 -3.296740 -6.519553 -3.363025 -0.205601 1.589783 2.565747 1.493907 -2.087556 0.095127 -1.325188
体 -0.354454 -1.112866 0.629909 -2.307911 -0.197381 0.309630 -2.749568 -2.237052 -0.813870 2.517359 2.859299 1.088229 1.050777 -3.098852 -3.139968 1.742841 0.961787 4.830848 -1.664782 4.125353 -0.371511 -1.059475 2.254200 3.294291 2.230025 3.229271 1.670424 2.215571 -1.461825 1.675399 0.623067 -0.196918 2.612556 -0.822725 -3.345683 -0.794007 -4.427338 4.741970 -4.723810 4.097317 -3.212731 0.700736 -3.026937 -4.100024 1.718022 -0.071036 -1.773438 -1.044087 3.612543 -1.411618 -1.514401 1.097356 -2.716635 -2.447393 -1.636247 1.106234 -0.922139 0.515684 1.065287 -1.123360 1.489921 0.155564 3.010229 -1.273139 1.343375 -0.028845 -0.514721 1.692313 -1.054526 2.323368 -1.867187 -0.414216 -2.478220 0.415044 -0.522095 0.945449 -3.900110 2.618187 -0.461193 0.183296 -0.854121 -0.496868 -0.523973 -2.857346 0.284950 -4.540748 1.150974 -0.366972 -1.599976 -2.318526 4.791244 0.624590 -2.421994 -2.909591 1.190994 -1.615735 -4.732777 1.571203 2.209879 -0.241329 1.379547 0.269836 -0.662447 -5.970066 -1.234922 -1.263583 1.701468 2.043079 -2.707917 -1.547701 -1.293036 0.616800 -1.010007 -2.842591 0.086695 -0.351616 2.051621 0.620788 1.672616 0.271444 -2.540350 -2.891125 -0.786886 -0.867983 0.013075 -0.078278 0.864373 1.122985
不 2.891177 4.660457 1.084255 1.151992 1.984053 -1.746861 3.882869 -1.868306 -1.455156 4.470153 0.583633 -1.948134 2.176593 -4.368340 -0.672693 -1.398776 -2.138439 -1.668927 2.246285 2.498771 2.243492 0.200296 -1.899089 -2.479515 -3.124205 0.498333 0.467618 0.352449 1.661383 -2.466096 0.509297 -2.354133 -1.035438 -4.639423 -0.120211 1.416536 3.589337 -0.402418 -1.497745 -0.390773 1.905117 -1.900598 -2.162297 -1.255470 4.382553 1.038193 0.469914 3.249867 2.691359 0.582754 0.626599 1.306549 -0.780531 -1.505100 -1.735422 -1.090301 1.014495 0.882449 -1.409967 -2.466581 0.776361 -0.459916 -2.545283 -1.422272 -0.485774 -0.184728 -1.375589 -0.147872 -3.368246 2.278648 -2.964569 0.620619 2.450182 2.051358 -2.039978 -1.294865 3.981001 -1.170031 -0.197186 -1.798290 2.933380 -0.696497 -0.679268 -5.536475 -0.543230 -4.900902 -1.141348 2.329414 -3.226480 -0.953227 -3.550867 3.890526 1.553901 -2.170029 0.512504 0.766440 -0.047081 1.249101 -1.247932 1.094125 2.354351 -1.588393 2.055410 2.289892 -1.808872 -0.331098 2.525789 -1.782049 -0.061903 2.390041 0.737847 5.568518 -1.153008 0.730482 3.736681 -2.666197 -3.464791 0.088539 4.569731 -0.661326 3.186636 -0.048477 -1.431361 0.488348 0.697061 0.294497 0.849253 -2.161831
期 -1.228343 -2.862833 0.972642 -0.231569 -0.464997 -0.844212 -3.660046 -0.726297 4.257188 -1.819920 -1.286559 -0.801798 -1.815349 -1.747371 1.997555 2.607155 -1.978350 -2.242839 -2.298157 0.295303 -0.381065 -4.380491 -3.568298 -4.720262 -4.063912 4.621854 -3.030993 -0.420234 1.451806 3.499579 5.732765 -1.733187 0.208937 -1.266501 2.293077 -0.247280 0.095287 3.932296 -4.041117 -0.501091 -0.846075 3.257106 -0.631015 -1.837017 2.973236 2.015524 3.932233 2.214986 -1.086838 -1.638206 3.115075 2.358571 -2.304967 0.813817 0.038947 3.483022 -2.478593 0.349554 -1.386479 -1.391585 1.181237 -1.438640 3.932511 -4.546017 -0.097021 -3.910753 1.041043 0.547482 -3.137501 0.837409 3.255906 2.246893 1.888040 -5.010553 2.366843 -1.185076 -1.377048 1.221644 1.553228 0.690789 1.333899 1.850049 5.290435 1.773569 -1.139346 -1.278712 -0.655357 0.295089 -2.106631 0.892532 -0.043664 2.855487 2.324279 -0.061034 -0.359675 1.668126 1.693779 -3.807165 0.958174 4.384038 1.689051 -0.286646 -4.201359 0.559929 1.360627 0.435832 -1.937490 -4.273535 -1.084188 -1.844710 2.388404 -0.475504 1.877541 1.231081 0.092965 -2.390813 0.025411 0.906040 0.948578 -3.005781 2.374501 1.350611 2.858553 -1.299321 -2.233904 -0.309437 0.894537 1.622469
肾 -1.979761 2.664900 5.289772 -1.131140 0.262645 -0.674519 -1.142082 4.596491 0.482360 1.430514 1.637038 3.641939 -5.341757 -0.229434 2.130286 4.155886 -2.723835 -3.917633 -2.360523 1.750629 -2.022918 -3.802479 1.304629 -1.126370 -2.648365 0.174763 -2.027403 -2.483853 -0.351812 -1.184716 0.658128 1.902759 1.696273 0.143594 1.905629 -1.316831 1.086626 -0.957793 6.598141 -1.180101 3.243290 -0.276193 2.350243 -0.436222 2.986054 0.886700 1.240212 -3.749524 -4.378137 1.435646 1.672403 2.098433 -1.710014 -1.591490 0.776067 1.698599 -0.889906 1.651190 2.114995 -0.426514 0.116685 -0.353946 1.493275 0.260408 2.883180 4.956111 -0.879712 2.556306 -3.379576 5.783483 -1.359572 -1.909752 1.598628 0.603563 -2.061192 2.401467 -3.709425 2.114173 3.135633 0.908735 0.666539 -1.939567 1.200846 2.222581 -1.128277 -0.725482 5.721501 -1.741006 -1.865149 1.705769 -1.726355 -0.465419 3.761562 1.494529 -0.559416 -2.815331 -2.067952 0.402360 0.084377 1.147916 2.350032 2.591924 3.519482 0.020696 3.663561 -1.759303 4.845968 0.850977 2.293710 -0.395921 0.967688 0.493661 1.560305 1.052167 -0.785679 2.700715 0.528310 -1.373042 3.619693 -2.174792 -0.812130 2.722354 -2.442107 -0.762587 -3.656634 3.136419 -4.716750 0.472917
肌 0.097413 2.252589 0.874917 -1.548288 -2.274888 -1.735271 -3.723522 -2.628169 1.705217 -1.396357 -1.696809 0.565566 1.408515 -3.374450 -4.562915 -2.748141 -2.109262 -0.151211 -2.890253 3.070802 0.715150 1.877256 -0.390511 -0.770047 -1.043125 -3.752569 1.989607 3.197206 4.036035 -1.176181 0.680198 0.128900 0.507504 -0.990169 3.067712 2.454370 -0.557501 1.889528 2.143606 2.277734 4.130251 2.537196 -2.663482 1.745212 -1.695294 -6.633171 1.710080 0.799942 -1.327050 1.099983 3.498096 -2.856026 -1.679684 -2.887712 2.889809 1.800270 0.116505 -2.589513 1.124126 3.410546 0.967854 2.730527 -0.023343 -0.548081 -1.312856 -2.112287 -2.222663 -1.114017 -1.038022 0.794539 0.000939 -3.491858 5.822516 0.434089 -0.409588 2.967930 2.019555 1.965656 -0.059924 0.540757 2.676061 -2.781942 -1.070582 -2.638480 2.531352 -0.878167 2.853397 -3.203524 -1.510487 6.624614 2.914634 -1.912894 0.744445 2.102095 2.000718 -0.922368 5.134515 4.217764 -1.553795 -0.300409 1.557930 1.550585 -3.228120 -1.794516 2.300102 0.002742 -0.412919 -0.060255 -1.101701 0.951151 -0.928440 -2.185067 -0.491809 -0.989520 2.066152 0.887760 -0.440535 -0.156203 1.289450 0.390692 -0.940075 -3.405733 -2.260056 0.224438 -4.565748 0.549897 -3.974225 1.266535
常 2.873048 2.653638 2.920443 3.048931 -1.265445 0.005242 -4.798129 3.311602 -0.672764 -1.222182 1.848226 1.547715 0.698936 0.107653 -2.619233 3.687523 -1.651394 -2.863701 1.220654 1.379529 0.331890 -0.664500 -2.609865 -3.766018 -1.997213 -4.175194 1.825735 -2.221429 -1.842059 -3.235565 0.838113 -2.918661 -2.464300 -0.117189 -1.309868 1.072839 -0.926921 -2.533391 -0.884190 3.972032 1.443708 -0.344261 2.151850 -0.802770 4.699673 0.585414 1.232368 1.279661 1.498491 -2.484989 -2.268250 -0.542285 1.592971 -1.274674 -0.390309 1.612023 0.702789 1.841796 -3.111393 5.101856 -2.113843 -0.762786 1.235775 -1.438996 1.514341 -1.020812 -1.425340 -1.298086 2.059359 -0.791970 3.037966 -1.923905 -0.943509 0.326658 0.226245 0.803267 -5.695401 1.916237 -4.657917 -0.001645 -1.276044 -2.151218 -3.174982 -1.766806 -1.088682 1.549259 -0.122634 -3.033555 -5.916375 0.623452 2.741587 1.118571 4.986515 -0.825316 0.079573 1.429223 0.400244 2.855461 -0.595428 1.101914 3.815895 2.466347 1.032377 -3.894236 3.857101 2.701283 -1.335315 1.382364 1.814719 -0.449730 -1.929090 -0.014332 -1.654123 1.571803 -2.578355 3.110459 -2.590966 0.502431 3.539136 1.390128 0.504367 -1.179344 -3.285607 0.043078 1.114962 -3.145465 -1.335596 3.403504
肝 -1.192973 0.215018 7.992405 2.615601 -0.442824 -0.434476 -4.819505 5.070750 0.280133 -0.929802 2.460876 5.390666 -2.114149 -2.512566 2.809937 2.950947 0.112772 -2.074335 0.851145 3.306682 -2.806305 0.606906 3.126714 -1.702098 -1.179997 -0.436833 1.990881 -1.035276 0.775954 -3.777852 -1.103080 -1.203347 0.645819 -2.025011 5.174491 3.807796 0.896873 1.968066 2.442251 -0.022376 2.524077 -0.296641 3.388531 1.294788 1.011711 2.485171 1.035961 -2.854695 0.152580 -0.088080 2.409597 2.291419 2.295930 -0.973947 2.819704 1.367270 4.256851 2.122186 1.139647 -2.432837 1.981450 0.393942 3.025837 -1.159525 -0.056237 -0.556058 -0.342664 1.361225 -3.926958 2.326741 2.781686 -1.820050 0.650513 1.592502 -2.446227 2.306206 0.205153 2.030715 0.870278 -0.521546 0.575311 -1.170792 4.456205 1.969387 0.156847 0.494574 4.353113 -0.860130 1.476190 6.921187 -1.727576 2.676584 2.074256 -2.228867 -1.776144 2.359295 -1.931823 6.949789 -1.044295 1.416242 -2.236853 -0.531763 2.414219 1.015270 1.920061 2.537268 2.909892 1.061648 3.198482 2.788802 3.877097 2.062631 -1.175282 0.986278 -3.654262 1.591988 -4.002020 3.479454 -2.177711 -1.997793 1.923921 -0.747993 1.557751 -0.441820 -4.151908 1.684743 -1.053721 3.197070
肺 -1.372081 3.559658 3.508509 -1.792240 2.457001 2.334092 0.480734 3.414510 -1.098844 6.659147 2.703783 0.125693 1.097181 -0.086414 -0.530140 -1.477915 -0.406837 -0.003774 -1.658501 2.573385 -3.084494 3.355246 -1.550513 4.572227 -2.174303 1.932969 -2.474915 -2.439274 -1.434098 -1.066671 -3.067022 7.087128 0.046100 -2.088552 -1.426384 0.166746 3.183185 1.022546 2.915601 -1.782136 1.225017 -3.836984 -0.395665 -1.171412 0.971028 -2.519041 -1.127404 -1.469118 1.741477 -0.670936 1.418987 1.985548 -1.507341 -0.096846 -1.219195 -0.858314 -2.401322 2.468763 -4.020776 -1.038033 3.219822 -1.875127 -0.227884 -0.646502 -2.617781 3.980504 3.942517 2.225013 -1.165974 3.885679 -1.240600 0.234513 -4.328624 -0.075797 1.815118 3.846870 -1.332594 0.679353 2.000763 3.238244 0.317703 -0.712552 -3.740117 -1.076617 3.120403 0.855721 0.533289 0.493217 -2.594368 -1.305208 4.707811 -0.223122 2.087444 -0.574486 -3.621931 -0.258862 -0.527501 1.073883 1.781249 0.361151 -1.836206 -2.189798 4.226484 4.346068 4.612451 -0.411696 1.611342 0.594186 -1.576695 3.525161 2.585822 1.902125 0.143305 -1.181775 -1.695063 3.364123 -0.402250 -1.938009 -3.736137 -1.135458 -1.014232 1.281556 1.746568 -0.622894 0.325808 -3.692498 -2.999495 -0.289628
蛋 -1.562741 1.335047 4.173657 1.734364 -1.681728 4.207382 -1.887461 1.244609 -0.731897 -1.178223 3.419111 -0.705640 1.090794 0.456594 1.093103 1.257165 -4.310589 -2.780354 -1.244573 2.228217 0.460876 3.063162 -3.640560 -5.539818 -2.423320 0.044792 0.468250 -0.164254 2.070551 -2.189953 -3.757700 -2.043034 -1.580263 3.125056 2.881619 3.472679 1.036022 -0.910092 -1.796283 1.166957 0.230235 -2.067535 -2.120888 -2.159240 -2.469038 -0.938107 2.269347 4.224174 -0.259444 5.487764 0.388549 0.869376 1.435579 -3.104118 -0.465482 0.229848 0.533736 -3.710807 2.007296 -0.964010 -1.584433 -4.078444 -0.919675 -0.917150 6.265672 0.905696 0.413124 -1.412580 1.092927 -4.258813 0.739430 1.916985 2.214402 2.371019 1.460676 3.715416 1.226084 -0.918225 -2.718399 1.530113 -2.449912 1.471993 1.260009 1.608556 -1.293961 -1.902829 2.879699 -3.897140 -0.260603 2.746984 3.222672 0.013998 2.119825 -2.993705 2.904694 -2.198526 -2.495733 1.771108 -1.416628 -1.837068 1.346426 3.393898 -3.912829 0.510939 -1.851480 2.746577 1.143678 -2.188334 1.411578 -0.811834 1.479213 -4.476561 -2.419122 1.206627 -3.909388 5.209643 0.990138 1.946378 -2.031314 1.888419 1.700602 0.327901 -5.667082 0.741847 -1.567822 1.373683 -1.734840 1.536233
示 -2.879440 0.288205 3.843143 0.033554 1.000610 -2.758516 -0.947054 2.388163 -1.060908 -1.861086 1.779186 1.014539 -3.575458 1.200131 -3.611822 0.692355 -3.285905 -3.291374 -2.173146 -0.912967 -0.050169 -0.279889 1.767006 0.479714 -1.157584 0.823102 -0.108345 -2.897554 1.004538 -1.030460 0.528530 -2.377548 2.606543 -1.756098 0.038534 1.524278 0.382392 3.333151 -0.941180 0.113328 3.900191 -1.391539 0.032747 1.398115 1.764091 -2.247105 -0.286083 -0.566713 -0.495131 -0.972235 -2.213164 -1.928684 1.306365 0.399922 -0.806111 -1.168111 2.638894 1.618157 -0.677900 -0.099436 -0.897035 -2.942870 2.948412 -0.977310 0.643548 1.031384 0.554353 -4.033424 2.905249 -2.135408 -2.283918 -0.745259 0.439882 -0.979521 -1.061579 -0.641942 -1.317196 0.187252 1.811740 2.002299 -1.037676 -0.656979 0.963124 2.259090 -1.421870 -2.550837 0.815438 0.124642 -1.142019 3.143685 1.095010 0.524634 0.589122 -1.887940 0.942237 -1.214795 0.538465 -3.746080 -0.249538 -1.287381 0.605899 1.970643 -1.802978 -4.329553 1.276788 2.356246 -0.099091 -1.419853 -0.950660 2.532739 -1.431082 1.828841 -1.314773 -4.994414 -2.083648 3.167080 -0.864833 -1.388342 0.959215 2.304120 1.598567 3.530272 -1.194843 1.878975 -0.696984 -2.478442 -0.201311 -1.021322
左 -0.619835 0.051738 0.733473 -2.911309 -0.381079 -2.116300 -2.454406 -0.226401 -0.676120 3.825570 -0.631499 -1.192589 1.894597 -0.691503 -2.701670 0.001179 2.606047 2.096842 -1.391030 -5.459749 0.679822 -0.318791 -0.608606 -2.975059 0.317230 1.734041 0.464472 1.646691 4.607477 1.935126 0.050065 -0.042027 -0.038581 0.919136 1.228752 -3.686776 1.962056 1.340713 -1.124584 -0.553486 1.348680 -2.718706 2.079334 1.463801 1.720645 -1.549113 -2.404457 -1.850208 2.147536 -0.509098 -0.735134 -1.671123 -0.981792 -1.939556 -0.147465 -0.891065 1.623645 -0.838635 -1.911377 2.114685 2.618072 -0.447604 -0.155905 0.617701 -3.334764 -2.951916 1.325781 -0.462097 -0.914532 -2.099441 0.653539 -0.845847 -0.532681 -0.119703 -0.664347 -1.139283 1.299928 0.656076 0.907109 0.372174 0.736597 -3.325831 -0.624894 -3.551610 -3.166934 -0.908039 -2.951294 -1.910493 3.336361 0.107711 -3.238834 4.332163 -3.354819 1.471126 -0.245654 0.931567 2.695976 -3.070535 -1.942716 -0.476091 -0.759889 -1.693077 0.008843 0.008646 -2.225048 -0.013283 0.414710 3.411842 -0.202059 3.681374 -0.418889 2.283229 -1.403101 1.361241 -1.334921 0.654684 -3.228687 1.863411 -1.951143 -0.909157 1.804503 0.854199 1.405201 -0.434625 -3.115273 -0.166749 8.388097 -2.548735
发 -2.804132 0.534992 -1.161694 -0.413289 2.745371 -3.273779 -3.542945 -3.036730 0.986339 0.800062 -0.304962 -1.411257 -1.134475 -3.087993 -2.331851 2.640030 1.984058 1.710180 -0.540863 0.687336 0.827091 -2.077019 1.360575 -1.640139 -0.001139 5.234235 4.661432 -1.893490 -2.489786 2.991148 -0.086788 4.380389 -1.247765 -4.503360 2.718697 1.177199 1.985941 0.848608 1.640509 0.074920 -0.740581 6.691834 -3.925856 0.349953 -1.582278 2.158109 3.843935 0.884677 0.928382 3.422544 -1.995309 1.476130 -0.843320 0.852239 0.867419 -0.473714 -0.293493 1.219926 1.452169 -2.438630 -1.731861 -3.371414 -3.630355 0.862941 -3.714484 3.505764 -3.680683 0.085715 -2.696004 -1.460803 -3.324342 3.485011 4.175461 1.407990 0.411619 1.171359 -0.971151 2.707842 -1.483157 -0.022187 -4.859205 -2.373979 -4.461065 -2.272988 -2.108547 -0.981630 1.372199 -0.708921 -2.978364 -1.532299 -0.963260 -1.887582 1.224208 2.370489 1.568203 0.688797 -1.375527 -3.171562 -1.520640 -1.099480 -3.067912 0.639789 -0.498159 0.388995 0.330486 -0.022766 1.834998 0.994082 2.758850 -2.691033 -0.786908 -1.910601 -2.764646 -2.550265 -3.076796 -2.495168 -1.995274 -1.515709 -2.339470 0.634018 0.899186 0.576718 1.222830 4.084370 2.808474 -1.011786 1.461516 -1.905141
尿 -0.232211 3.536446 4.129581 1.460838 0.922635 0.757672 -2.111738 -3.681602 -1.275057 -0.291325 1.561026 -0.383671 -1.458135 -2.670757 2.062492 -2.417150 -2.276128 -0.892742 -1.954913 2.221938 -0.311239 -2.709525 3.288954 2.545246 -0.700371 -2.511394 1.067484 -1.350639 2.234578 -2.741754 1.826275 -2.684554 1.469286 3.069440 1.407968 -2.367115 3.036051 0.550989 -0.666016 2.044776 1.625378 1.836377 1.163159 -0.605540 -0.297284 -2.254527 -1.793098 2.841873 -2.466850 2.365822 2.229347 -0.088532 0.425430 -1.919575 4.180748 3.254454 3.403095 -0.051178 1.986217 -1.680417 -6.262357 -1.143798 2.121705 -0.855372 3.435841 -1.651023 -0.854578 2.055264 -1.712260 -0.234659 -3.585095 -0.743629 -0.296197 2.500429 0.351165 -1.231875 -0.697922 2.332410 1.997529 1.199583 0.418150 1.620003 1.093890 -0.146310 -1.124560 -1.383177 -0.748750 -2.941937 0.507465 1.068806 2.356379 -4.382902 -0.857723 -0.007855 -1.666440 -3.344844 -0.887533 5.616179 0.987341 2.840153 -0.369909 1.361854 -0.525625 -0.218170 3.017129 1.577770 2.399016 -0.415481 3.526438 -2.332003 -0.903741 -0.099002 1.867079 3.012997 -1.046915 1.422663 -1.552961 -0.779595 -0.468211 0.920395 3.155718 -1.263742 3.733943 5.340259 -4.222334 1.116314 -3.459454 4.760941
口 -1.054420 0.604621 -2.790908 2.185836 -0.659563 0.678269 2.269301 0.274732 4.215137 -2.218451 -2.054152 -4.773081 -2.021163 2.044887 0.996386 -2.170564 -3.084802 -4.189765 -4.570179 2.539385 1.262406 -0.091723 3.015198 1.810966 1.403525 0.321317 -1.459280 2.645144 -1.647123 -0.013161 1.881629 -2.491461 -0.905966 1.180020 -1.707847 -0.162889 -3.759516 -0.486089 -1.070215 3.093070 -5.901430 0.823499 -3.071986 -2.482699 3.615886 1.225440 0.324147 1.206934 -1.248752 2.011050 -5.628543 -0.399944 7.106987 1.563378 5.137094 -1.431075 0.695940 -3.141373 2.837016 -0.536651 0.290848 4.605183 -1.885925 1.508365 -2.424594 0.544721 0.344466 1.304995 -4.019570 0.602332 1.449394 2.131786 2.372142 -5.501366 0.551387 2.100783 2.491978 -6.564858 0.521206 -2.942182 2.954427 -3.762986 2.072276 3.644233 2.117373 0.193308 0.198312 -1.075628 1.069248 -1.492757 -3.540312 0.308065 -3.831759 -1.563786 0.655360 4.923500 -0.436001 -0.905959 3.033371 2.976780 -3.095097 -2.577803 1.584362 2.004086 3.275979 -2.174490 -1.239494 -1.711503 -2.685877 3.128790 3.998751 0.825729 1.977790 1.347095 0.911323 -0.520564 -0.269149 -0.260922 -0.114942 0.991138 -0.373755 -1.444448 1.509093 -1.502891 -1.629710 -0.825450 1.338175 3.001911
前 1.462737 2.000009 -2.292880 -3.188091 -2.098065 2.462793 -0.932849 1.368722 -4.987656 -0.586782 -1.665517 2.356916 -2.642839 1.248690 2.748001 -0.732444 -0.097233 -0.887182 -2.601194 -0.060680 0.188593 -0.589449 0.332706 0.127840 2.351660 -0.126836 3.599794 0.615250 3.786294 2.264714 1.438650 4.044005 0.801535 0.479545 -2.034477 -1.499383 2.555982 -0.098432 -2.463651 0.219403 -1.549864 -1.038359 -2.227808 1.623474 0.699766 -0.043291 5.730532 0.438477 0.508821 1.981727 -0.153608 1.519540 2.732560 -0.319709 3.062278 2.486615 1.898417 1.682434 0.165831 -0.732725 -4.497890 -2.047144 -1.866851 -2.392992 -0.670489 4.667418 0.686490 -0.077274 -1.394883 1.627473 0.599878 1.912233 -2.028497 1.721884 3.390200 0.058300 2.255908 -0.581452 4.354980 -0.540840 1.118846 -0.559187 -1.309633 0.366015 -1.929059 4.488076 4.150390 -5.329406 3.752308 0.674213 -1.898255 2.476437 0.358445 2.285488 2.149254 -0.300172 2.125135 1.133586 -1.403937 1.135805 4.817791 -2.075301 -1.814417 -4.662117 3.973953 -0.118891 1.699759 0.223418 -1.634272 -1.529877 0.113700 1.361044 0.425245 -1.510252 2.620259 -3.304567 -1.777189 0.943445 -0.176793 2.415031 1.988223 1.707720 -0.876830 -3.826420 1.752647 -3.676822 2.203614 -1.683407
片 1.374006 1.451483 3.139953 -2.950117 -1.030158 0.200200 -0.056692 3.116320 4.153142 0.158722 0.102002 -5.441195 1.237931 1.938701 -2.182029 -1.804358 0.892215 -1.755304 0.126007 -0.290370 -1.797990 3.343445 5.595659 1.915077 1.640134 -3.316054 -2.291528 0.445161 -2.420893 3.489185 2.825764 -4.001457 3.718395 -1.565673 -4.265343 -2.725329 -0.044206 0.205987 -4.031800 -0.436550 0.614477 -0.296117 0.411307 3.067944 -2.602444 -0.130006 1.268660 1.865430 0.498503 4.556200 1.454462 -1.080483 0.970870 -1.561244 -0.458482 2.507066 -0.588731 3.431830 2.109540 2.154320 -2.971923 -3.703908 -0.950833 -1.128624 0.322051 -3.320146 1.402299 -1.189693 3.693254 -1.695058 1.312242 0.050621 0.096275 -0.057584 6.596813 -1.585900 -1.979274 -5.656350 0.740399 -1.600205 1.304702 -1.263063 0.611456 -1.889728 0.060843 -1.429183 2.436207 -0.916218 -3.905994 -0.028690 -0.863655 4.121371 1.083197 1.638867 4.151763 0.670013 -2.120013 -0.274974 -1.741524 -1.973240 -1.748246 -3.537522 -2.612749 2.919662 5.562970 -2.148394 -1.728522 4.133266 -1.730702 -1.007464 4.987796 -0.204878 -2.639093 3.960308 -2.938367 -3.909773 -0.501556 5.084632 0.583550 -0.268321 -0.279748 2.562495 0.640230 -1.820137 2.342101 -1.029733 1.449643 -1.177172
脂 2.320498 1.755064 4.528006 -1.452130 -2.729980 -0.941234 1.844154 1.690232 0.087461 -2.829875 2.220783 2.357727 -0.957795 -5.471570 2.121389 -1.205604 -4.373712 0.349234 -0.596244 2.634170 -0.528215 1.922974 -3.621002 1.098296 -4.354384 2.094406 2.231563 -1.034454 -0.516705 1.872246 0.970696 0.082498 -3.243103 -3.229718 1.652666 -1.814067 1.154838 1.483042 -2.133312 1.680063 1.338665 -2.227925 -3.201070 2.808354 2.006773 1.315180 0.134125 1.070852 0.286890 1.903257 2.693032 -3.830935 0.978995 -2.154239 -3.251681 3.126317 1.433040 -0.106305 6.904595 3.573250 -2.917117 -0.072208 -2.902165 -3.693495 2.831019 0.531323 -2.161309 0.767031 0.475026 0.738242 2.823599 -2.801758 4.433624 -0.377142 -0.220684 -4.223861 1.060402 2.526630 -5.824712 1.635009 -1.861660 -0.314801 4.791514 1.176437 -3.350290 3.371733 1.909378 0.593951 0.119737 -0.407199 -0.972440 -0.389318 4.043931 1.084417 -1.572876 -2.733403 -0.909966 0.823576 -0.580129 -0.367234 -1.876280 4.229387 -0.398655 -3.302706 5.361817 1.230119 3.716968 -5.077573 1.083059 2.347377 0.407255 2.600715 0.309766 3.126030 -2.693928 5.516933 1.579015 2.701302 2.104936 1.017439 1.500785 -1.943204 -2.444273 -1.496038 -2.765234 -0.069270 -0.650948 2.000836
定 4.303237 1.677708 -0.369788 3.308876 1.088549 1.944116 -0.551772 0.016919 3.117507 -2.007398 -3.581206 0.210392 -0.216454 -1.366747 1.978589 3.381966 -0.124169 -1.782919 -0.354908 -1.599345 4.229029 -2.473598 3.342388 2.910681 3.331917 -0.000193 2.387665 2.510698 1.108240 -3.918791 5.049884 0.546254 2.076266 2.787204 -0.640037 0.916918 -0.177126 4.745630 3.760852 0.535728 0.191438 3.163672 3.774287 -1.514141 2.954748 0.772032 2.110745 1.805756 2.299020 3.561981 -0.861321 1.458698 3.166943 2.537212 -2.871110 6.324875 2.889446 -4.481017 0.662240 4.404306 3.554840 -1.874471 -0.454965 -0.951206 3.713872 2.668048 -1.175083 -6.048175 2.233376 0.239198 -2.829060 1.426123 2.980950 4.218248 1.218367 2.464023 -1.370336 -1.206607 -1.132144 1.827268 -0.924522 -0.812272 0.981009 -0.524279 0.509851 -0.488153 2.884112 4.491651 3.629169 1.359994 1.361654 -3.792739 2.512615 3.303794 0.811431 1.860069 -2.258754 4.939606 -2.042853 -3.420319 1.665644 -1.342090 2.304154 -1.121578 1.160461 -0.189782 2.575001 0.774286 -0.382752 2.041382 -5.207575 1.356887 1.245314 0.770988 1.283420 3.723909 -1.722518 3.758050 2.449433 1.553528 2.137430 -2.498180 0.080683 -1.131624 -4.338861 2.701216 -1.232107 0.060966
日 0.492116 -0.060896 -4.108929 -0.111790 -1.152196 0.733539 -1.509737 -1.209204 -0.655138 -0.432133 -0.378977 -1.583950 3.398788 0.514852 2.920676 0.266531 -0.956399 -2.315700 -2.201420 -1.017340 -0.249820 -1.596803 4.267668 0.109890 0.433279 0.698960 -0.731572 0.446015 -0.237844 1.699390 1.977098 1.934415 2.988775 5.740619 -1.406746 -2.727849 -0.482032 -4.070940 0.936514 -4.350333 -3.124807 1.645020 -2.870611 0.502515 -0.600485 -0.977841 0.439745 1.956272 0.421758 0.960039 -2.375262 0.858834 1.099491 2.895057 2.826475 0.953433 -1.884644 0.827659 0.836986 -1.133673 -0.298213 4.498277 -1.006208 2.293634 2.690858 1.604028 -2.134972 -2.078352 -0.375931 0.029574 0.243474 0.933262 0.668168 1.018212 -0.995440 -2.335034 0.751073 -3.916136 -1.904246 -1.370156 -1.500629 -2.933622 -3.883145 1.902415 1.070040 -5.362597 -4.126881 -0.638950 4.962934 -2.245842 -2.530217 -2.580471 2.465909 3.121490 2.268780 3.671481 -4.896147 0.939860 1.309891 3.247849 -0.355380 -0.211990 5.292984 -0.993572 2.732718 -2.576886 -1.413347 0.562093 -0.161039 -0.973671 -0.823815 0.195366 -0.839364 2.005059 3.383825 -1.067799 -0.919707 1.377588 0.482445 3.592513 4.257956 -2.766320 0.935472 -3.002154 1.745442 0.530250 0.004925 0.592676
下 2.215467 -1.492022 -0.363159 -4.292146 -1.665044 -3.198408 -0.134030 -2.511672 -3.079831 1.505146 -0.754116 3.040970 -1.949237 -3.696428 -1.290519 -1.791458 2.664086 2.496335 0.084760 1.886456 -1.829466 2.415638 -0.661798 5.240115 -0.846767 1.659307 -0.024596 -1.819468 2.469925 -3.990480 -1.272454 1.866585 -1.455878 -1.225079 -1.256421 -0.198434 1.136050 1.600703 -0.617479 0.827268 1.145025 -3.592011 -4.118477 -0.286363 2.331022 -0.801030 2.405374 -6.120302 0.988507 0.121063 -4.746216 -1.268853 3.271626 1.903019 0.353253 -0.752273 -3.200181 4.993639 0.636005 1.948942 -3.553213 1.839355 -3.079007 -0.919436 -0.965301 6.721848 0.917510 1.564174 -3.636293 0.546715 0.059475 0.436143 2.070863 -0.144135 -3.760855 -2.170687 -3.507395 1.341223 -0.418911 -3.808856 1.282210 1.282043 7.272737 0.619224 3.734264 1.486763 -4.114476 1.891703 -0.333435 -4.368208 -2.108750 -1.138214 1.913051 -0.169450 4.509403 0.851017 1.276582 -0.412907 -1.154890 2.168013 -0.652931 -2.452511 -0.303733 -3.077321 -1.997231 -6.116285 0.250551 -0.672561 0.823698 0.872974 1.832906 -2.300850 5.392477 -2.060344 -2.288437 -1.915598 -0.220094 -0.354978 1.723326 -3.085354 0.222777 4.328769 -2.499244 0.372728 0.304898 2.702571 -1.022203 -0.120466
细 -0.914980 -1.384681 -0.268848 -5.904845 5.455430 -0.153132 1.203102 0.580184 2.931095 2.043782 1.758385 1.411669 1.472437 -1.176055 -2.243984 -1.719989 -2.299629 -1.428095 0.629831 3.029633 1.104682 -3.520780 1.191415 -5.554920 0.182936 1.818300 0.591555 -2.879156 5.305642 1.552514 -2.006664 -3.986404 -0.558537 1.800597 3.328786 6.129733 0.015354 1.379003 2.060204 1.589220 -1.186430 1.147561 0.734893 -1.872003 -0.829559 -4.143515 1.664636 1.786713 0.368457 1.938822 -4.985775 1.419304 0.148952 0.259019 -5.595474 3.345562 2.181014 2.885146 -2.951799 0.482204 -2.208181 -5.523408 0.780242 3.659338 3.176506 -0.865994 -3.756445 -0.436239 -0.682495 2.943475 2.569505 -1.193450 2.000874 4.527122 -0.586314 4.018775 0.809734 -1.226192 -1.178794 0.034903 1.228514 -2.596531 -0.955413 -0.681670 0.106966 2.123849 -0.819273 -4.276538 -1.484628 1.784724 -1.249642 -0.585515 -0.050652 -0.953628 2.920650 -4.222658 -3.504039 1.465901 0.977081 -0.060669 1.278603 -0.246089 0.180038 0.855856 -1.734678 -1.430202 0.267657 -0.036239 2.459341 -0.589771 -0.351793 -2.492525 1.978886 0.318606 0.022711 4.168096 -2.500551 1.102678 -0.609373 1.609750 0.400318 -0.697117 1.251738 1.758384 -0.589456 0.380953 -1.243673 4.359800
化 -2.763481 6.155487 -0.094137 -1.734076 -0.095202 -0.775111 -1.599890 1.579924 3.748864 -1.767652 -0.164116 -1.634927 -0.018461 -5.454147 -2.635039 0.349542 -1.008962 -2.950430 -1.286913 1.248302 6.202981 -3.174334 4.753060 3.463264 1.921217 -3.191547 5.732029 1.697228 0.041118 -1.254142 0.364889 1.902855 0.206056 -4.974347 1.592154 -0.262859 2.691868 -7.493658 -0.195599 -1.818712 -1.801784 -0.579953 1.090965 1.645257 -0.747886 -1.940370 -2.151495 2.685569 -3.602035 -2.837187 0.453467 -3.321929 -0.983226 5.061497 1.395317 -2.984998 0.156167 2.545130 -2.372532 4.928970 -1.160069 -0.906226 1.719329 1.860748 -0.925789 1.049693 -3.304985 -0.290586 0.675297 0.914981 -2.119066 -2.380349 2.463548 2.275794 3.096121 -1.623310 -0.617620 0.243871 3.252142 -0.723067 0.990907 -2.755651 -1.164651 3.100803 -1.858950 -0.165634 0.861673 -1.638737 -1.044508 3.812023 2.210026 -1.179909 -2.802390 -1.881566 -0.781333 -0.587322 0.063017 -0.907818 2.299086 0.057439 -0.177772 2.371370 -0.571907 -1.125083 -2.074916 -0.230986 -0.709960 -5.242940 -2.921591 -0.319039 -1.249134 -5.874350 4.545815 1.342948 -2.483744 1.738246 -0.138235 -2.681294 3.006192 -0.071320 -2.363468 -5.674331 -1.353846 -0.471461 -7.301019 1.184011 2.328093 -1.286047
肿 -3.496371 -5.503348 -2.602122 -0.720570 -1.317776 -4.935079 -0.187892 -4.066895 1.322077 1.087994 -0.004735 2.953800 1.632932 2.046877 -1.288306 2.886472 2.177698 4.399303 -4.498992 2.202578 0.755680 0.481075 -0.916565 -2.181747 -0.529821 -0.798925 5.949135 2.806694 3.065951 -0.837314 0.526129 2.661130 -6.753552 0.978983 2.837177 1.115669 0.794054 -3.173893 2.136813 1.484382 1.729625 -2.703951 1.695572 -2.846584 1.310682 -0.706187 3.060217 -2.609396 1.181224 1.346922 -0.155719 -3.485977 2.939864 1.608115 5.027619 1.806567 -4.609050 2.970016 2.841905 4.411024 1.204470 -4.313566 3.597461 0.332805 -3.059611 -1.784279 6.860005 -0.881088 1.676858 4.797951 -2.909575 -1.366026 2.497939 3.335951 2.161139 -0.298689 -2.935102 1.670959 -1.737293 -1.109334 -2.397098 1.820320 -3.347048 3.084982 4.757967 2.383589 -0.174981 -2.219472 0.845646 3.957704 -1.967441 3.004927 0.262886 0.050741 -2.070919 -0.260721 -1.077272 -6.178548 6.002687 0.755446 3.296057 -3.382011 -0.393356 -0.316373 -4.946290 1.891206 -4.504620 3.669008 3.198884 -2.189750 -4.629692 -3.756700 2.359720 0.483874 -1.904489 4.850061 -0.035634 -2.420644 2.214536 -1.603874 -7.060869 2.900126 -1.473569 -1.348892 0.015771 -3.093921 -0.529155 0.843382
复 1.253984 -6.806833 4.556320 -0.568516 -0.402851 0.507104 -1.610392 2.226445 0.068748 -1.573736 1.012926 -0.695785 -0.177627 1.872660 3.468742 2.447006 -2.389080 0.416915 -4.253784 1.967960 -1.490848 -4.023525 2.946076 1.005746 1.921437 3.998289 4.593281 -1.535056 -4.046206 1.567728 2.657631 -2.279926 3.532002 3.674391 1.027980 1.194529 -0.271149 -2.811624 -1.911689 5.161167 0.315478 2.318389 -4.614314 1.709252 5.738638 3.399981 1.114982 3.680949 4.095865 -3.106541 2.813493 -4.202497 -0.615481 -0.396394 1.702785 1.145449 -0.617495 -2.969741 0.282061 1.217989 0.663438 0.059153 4.701316 -0.093794 4.184474 -0.221287 2.854784 -0.427510 2.280438 4.878368 1.083021 -0.123321 -1.725322 1.591343 1.037208 -0.731280 0.746444 2.044670 -1.598997 0.914794 -0.090422 -0.930610 0.776990 -3.869326 -7.704683 -7.167856 1.824279 1.184161 -2.055181 3.643074 -0.747621 0.163435 3.076908 -0.110131 3.577263 4.287120 -2.424130 -0.190293 1.040791 6.872198 0.715941 1.733932 4.286967 -0.290648 -1.728161 -0.337389 5.238679 -2.468308 -1.097431 -2.134695 3.531932 1.927509 1.258428 1.176306 2.586489 2.436719 0.016648 1.805694 -3.131890 -0.071007 1.646851 -2.696201 0.189945 -3.438618 0.074981 -0.831064 -0.921794 -0.352886
糖 3.640002 -1.019888 -0.817795 -3.489022 -3.055418 -0.004342 -2.795955 2.304460 -1.022283 -3.058644 -1.814835 1.821395 3.022153 -0.235264 -1.502665 3.955301 -4.834443 0.075112 -0.439253 0.203346 -0.727521 1.649866 1.020095 -4.368768 -1.341933 -0.749413 -1.624277 -0.399368 2.244531 -1.132276 4.391123 -3.958836 -0.522723 -0.339464 1.044504 -0.577096 -3.203854 6.834434 2.034356 4.811575 2.327076 -0.238536 -1.142080 3.962663 -0.572011 1.447718 5.702024 3.301636 2.686736 2.027962 2.260547 -1.050796 0.549015 -2.108996 -1.901095 -1.180251 0.651347 -1.462833 4.540747 3.529348 -1.079063 -2.040672 -1.102017 -1.097947 3.788579 0.092860 2.291100 -0.253016 -2.505262 -1.660457 2.066183 2.810161 2.029332 2.934114 -3.527415 -0.702543 1.142768 3.104572 4.418554 -0.279272 -1.059622 1.152887 1.632616 0.854224 -3.348817 0.613917 0.237647 -1.149113 1.307659 -1.209835 -0.139059 -0.406917 1.256087 -0.484484 -0.560648 -0.232561 -2.972293 2.354326 2.144915 -3.366207 -0.841739 2.536980 0.001804 -3.425232 0.771713 1.354642 -3.115892 -3.882370 1.135916 -2.875664 -0.635539 2.461806 -0.967515 3.660285 -0.684966 7.716756 -2.894869 -1.939252 -0.237201 2.441021 1.205288 -1.749640 -1.035893 0.499008 0.554814 1.314694 -3.995990 2.435136
吸 3.045050 -0.784945 -1.499595 1.961590 0.113995 6.443704 2.873295 -2.217676 -0.635313 3.935639 1.755083 -4.131117 -0.298218 -4.320535 -3.223221 1.108162 -0.186638 1.586421 -3.775676 3.211184 -3.826279 2.708547 1.419204 -1.690388 -0.012914 -3.092329 -2.915009 2.133703 -2.547392 -2.748630 1.587712 3.786768 -1.174570 -0.896907 -5.347562 -1.548012 -3.404076 -2.301510 1.425203 1.938198 1.057020 1.079664 -2.088326 -2.311604 3.129535 2.831834 -0.987413 -1.119472 2.830581 -1.619725 0.155089 0.074249 -1.079924 -1.933756 -4.387239 -1.463005 -1.129342 2.698131 0.579579 -1.089761 -2.292895 -2.132801 -2.368446 -0.558772 -3.273359 1.923727 3.718791 0.056754 -1.838542 1.674409 -0.164999 3.131297 -4.117460 3.035792 -6.447463 0.338573 -0.656853 3.553302 0.078709 -1.458814 1.448221 -3.651835 -1.839037 -2.738314 3.971588 1.793267 -1.724091 0.050608 -5.151962 0.173902 5.497908 -4.060234 -4.774512 -2.628214 -0.124247 -1.049619 1.340991 -4.033528 7.530632 -0.829966 0.356546 -3.934019 -3.064598 1.452072 5.185846 -5.219981 -4.449786 -2.366149 3.872853 0.597176 0.086398 3.570592 1.907846 -3.590603 0.797135 -1.520824 2.815060 5.214780 -0.273446 -3.531235 -1.910707 -1.769933 3.997331 -2.019869 -3.334162 -1.613104 0.732466 -3.730907
药 1.147869 -3.119570 2.644881 1.383259 -1.922440 1.437368 1.690633 0.080328 2.245116 -0.585696 -0.252020 0.090781 -1.656602 3.777901 0.900696 3.223975 -0.960952 -0.622649 -2.221656 -3.049148 1.686935 -2.774037 -2.555855 0.368757 0.127615 -2.512166 -3.372290 0.932329 -3.337239 1.063584 2.991786 -3.953300 0.137301 1.839136 0.212128 -0.850623 -0.153129 -2.937490 -2.927266 3.862424 -1.592319 2.105231 0.268935 0.241359 -2.429922 1.975254 1.242855 4.135099 -1.778616 -0.304220 0.311189 1.233906 -2.771278 2.882217 0.629669 1.924002 0.565632 1.013055 -3.662333 -1.519981 -0.920744 -2.735200 -1.406593 1.931232 -0.932241 1.825034 0.637175 0.775591 0.153466 3.021692 0.316649 2.831245 2.386725 -0.508880 -0.839193 1.631352 4.978016 -1.204028 -0.227477 -2.035295 1.065434 1.263884 2.554774 0.387365 0.085589 0.407971 -1.307190 4.416354 3.085443 1.136118 -2.630291 0.185910 -0.805272 -1.835883 1.855243 4.466496 -1.650999 1.775893 2.251376 0.384365 0.298654 -4.705042 0.107591 4.197167 2.141729 0.847914 1.175279 -2.158708 -2.161748 -0.885742 0.671784 -1.853913 0.484422 -1.088716 2.924645 1.218535 -3.054610 -0.375368 2.867762 2.552935 3.118132 -0.883631 -2.701333 -1.855675 -0.830523 -0.349354 -3.495441 -2.559303
搏 -3.711403 1.201454 -0.656606 -0.789607 -0.078204 -0.002929 0.573264 -0.070795 -0.989651 3.391492 -0.056454 -1.867751 -0.139043 -0.928549 -2.812504 2.442575 3.017950 -3.313423 -2.166461 0.965519 2.010188 -3.222596 -1.217368 1.383362 -0.198318 1.572763 5.260300 -1.571449 4.981047 -1.457108 -2.040318 3.941305 -1.745577 0.009555 -5.420169 -3.398593 -2.973464 1.663932 -0.404340 -1.884249 -5.351014 2.241382 -0.495363 -2.019058 -0.333140 1.772231 -2.328122 -4.459334 -1.267471 5.689414 0.581454 0.628033 -5.594241 -5.095728 -0.304839 -0.009286 -0.421769 -0.950398 -0.245759 -0.485167 4.000150 0.585268 1.452312 6.244720 1.485599 1.441099 -4.378432 -2.437104 -2.103559 0.294607 6.490350 2.623208 1.713665 -4.572053 -1.904671 -2.945810 -3.047866 2.626207 -1.517022 3.894162 -4.705468 -1.566816 -0.269160 -0.961501 -1.086553 -2.175382 0.798617 4.164206 -2.150251 -1.911460 -0.795114 2.798791 -5.002929 -5.970632 5.640370 -1.758580 -4.081530 -0.378436 0.414907 -5.819648 2.265571 1.877564 0.938665 5.033192 -1.098593 -0.544495 0.798524 0.573988 -3.913268 -0.279895 3.253900 4.840379 0.087362 -1.037105 2.812241 -2.838747 8.400537 5.826714 -4.035720 2.170920 -1.646656 3.579831 3.248992 0.047695 -0.321034 -2.380066 2.572321 -2.706421
低 -0.700416 1.759491 -1.746971 -2.417210 -1.403971 1.847057 -1.639849 1.524292 2.839409 2.083305 1.590964 0.034459 -1.474540 -1.181864 1.993464 -0.353489 -1.688193 -0.351331 0.382372 -1.093743 0.927899 -0.341019 -0.695587 3.351551 -0.220109 -1.962289 1.337579 -1.913958 3.329058 1.311863 1.204106 0.527178 -4.110850 -1.384186 -1.169957 -1.301623 1.120997 1.994296 1.070474 -1.774135 1.461744 2.353532 3.208278 0.396753 -1.708295 1.524379 -1.505517 2.654320 -0.821680 -0.007736 -1.968300 -1.019319 -1.021422 -1.384072 -2.169538 -1.384870 -3.152603 0.331792 0.495974 3.328929 -4.740891 1.818062 2.089961 -1.481626 -4.452600 2.574312 -0.401582 -2.717676 -3.491649 -1.559943 3.158213 2.416999 -0.455294 -0.775717 1.954805 0.445244 2.365463 2.456548 1.895455 -4.969606 1.156238 -0.287595 1.065619 -1.355983 -0.990163 -2.348455 -2.057819 0.724089 -0.999617 2.928622 -0.663340 -3.539153 -1.001134 -0.398145 -1.304672 -4.845706 -3.179563 -1.207093 -0.163819 1.010918 1.622591 0.016390 -1.184266 1.985249 0.992412 -0.345868 -2.097839 -0.252894 -0.149853 -0.094625 -4.772923 1.854401 -1.645364 -0.559791 -1.276927 2.915767 -0.575167 4.160551 -3.882387 1.869655 2.420549 -1.888198 1.336888 -3.157622 2.084116 5.939051 -1.069971 -0.529703
呼 0.816522 2.935414 -1.825003 -3.127812 -0.165890 -4.909867 -3.028364 -1.804907 1.470804 6.281458 1.821901 4.315622 1.657053 -0.618193 -6.791219 0.903717 1.619415 2.097687 0.127012 2.009303 -3.331573 -1.334570 -0.848417 5.278217 4.747149 6.845685 0.676116 -0.987775 -1.323164 -1.173167 -0.148113 7.283491 0.027383 -1.731607 -5.229111 0.850092 1.771132 0.832816 4.183236 1.715556 3.211810 -1.294834 3.337855 -7.547160 -1.031917 6.238065 1.979558 1.700676 -0.413802 -0.488288 -1.607161 1.881665 -2.626468 -7.238094 -3.391019 -2.015461 -0.228603 -0.506660 0.903027 0.367559 -0.172717 -0.829378 -1.214840 3.291730 0.591475 2.388419 0.087412 2.048750 0.166263 0.595131 -1.328233 1.159458 -5.028107 2.464090 -0.019364 -2.677458 1.704762 -5.827270 4.905642 -1.853725 2.283028 3.444901 -0.433297 1.869956 6.866226 -2.509068 -1.559595 3.157422 -2.480291 -1.747843 2.062099 -0.422609 1.382717 -5.772153 0.725357 1.004241 1.386958 0.406473 4.985367 -0.933703 3.337444 0.127908 2.039690 -2.975291 4.793222 -1.971069 -3.714800 2.053209 -2.030970 -0.607658 3.948890 5.884988 -1.180835 0.134983 1.585282 1.939227 5.141994 -2.924842 -0.891599 -1.327587 -0.274238 -2.686729 0.472931 -0.175881 -0.021679 3.520827 -1.198940 -0.415363
规 0.288505 -1.814484 5.714777 -0.424346 -3.639574 -1.205100 -0.788200 2.052599 -1.157672 -3.192299 3.064144 0.599954 4.032766 0.624099 1.494480 -0.453192 -0.222199 -0.510256 -3.433051 -0.859260 4.232673 -1.330018 4.443718 -4.058429 -1.125745 3.504529 1.655073 0.589096 0.128125 2.921078 1.288930 -2.686768 0.417365 0.693240 3.108161 5.454559 -3.761502 3.517119 0.900672 -3.595725 2.070234 1.002920 -0.945175 2.425455 0.745990 1.763511 1.894133 5.447734 -6.347186 -0.810818 0.818918 -0.543129 3.759393 0.791223 -2.528832 3.279531 -1.256629 -1.412994 1.798561 4.827382 -1.175711 0.114167 0.348265 -4.003027 4.565036 -0.459068 0.734851 -3.541945 1.400394 3.087981 1.134529 -2.265705 4.000492 3.419737 -2.562953 2.397854 5.508371 -2.275971 1.653120 -0.258204 -2.722447 0.854271 2.705511 1.123934 -3.020179 -5.271097 -0.547231 -2.022410 3.983930 -4.354153 3.216560 -1.285531 4.752278 0.610172 -5.288744 0.720222 -0.912557 1.630432 -1.004957 -1.772029 2.436658 -0.654378 0.671080 -1.008065 -1.111189 -4.108682 0.545993 -1.617774 -3.878796 -5.449526 3.299487 0.431693 1.752228 -1.990927 -1.398240 5.019279 2.104105 -0.491032 -4.803917 -0.793350 0.495468 1.179750 -2.332780 -1.918838 -6.997896 -2.315424 0.318202 3.632846
大 -1.817749 1.927787 3.937741 -0.713005 -3.792138 -0.842677 -3.911954 -0.559767 -2.618371 -0.165330 -1.747823 -1.143435 -1.834621 0.656968 0.424066 2.543023 2.951081 -3.918655 -3.183330 -0.269397 -2.255110 0.487845 5.879773 1.740793 3.375647 -2.391648 -2.448366 1.057477 3.452760 -3.714020 -2.263087 -0.149101 -0.763695 -4.378198 -4.976116 3.673179 0.686331 0.381974 2.012117 -1.860893 1.824813 1.280564 -3.281275 0.926738 -0.874350 -2.748276 -5.470868 -2.249191 1.610861 -3.766476 -7.056976 -0.006933 -3.235276 1.334132 -2.070149 2.860128 4.185817 -0.081985 -5.509341 -2.674568 1.886964 3.424749 -0.586812 -0.016627 4.634975 -3.381462 -1.934927 1.313308 -3.288277 -2.232066 4.337527 -0.613552 -1.857284 -2.347936 0.973775 -1.114321 -2.601953 -2.759363 0.352670 2.160853 -0.308163 -2.187389 0.884864 -3.896599 -3.452911 2.042858 1.706970 -3.677195 -0.923677 -3.351277 1.317718 0.129414 1.688109 1.167208 1.102814 0.728905 -1.569909 -2.104083 -0.125739 0.170031 4.639275 -1.230555 -2.181194 2.525903 0.949713 -3.321251 5.270570 0.751401 -1.263484 1.265911 1.554977 1.743109 -0.096108 -3.977122 -2.255907 1.109462 0.226911 -2.719672 -5.081030 -1.915608 7.173619 2.116873 -1.349350 0.575503 1.496362 2.851127 0.003971 4.372881
电 0.140811 2.201857 4.051058 3.605510 -0.504543 -1.200794 1.461109 2.189373 0.048820 0.431619 0.980147 -0.486399 -0.782192 0.863711 -2.887626 0.498266 1.770825 -3.154835 -4.176352 0.950563 -0.293390 -1.585012 -3.941235 0.846426 0.888243 -1.207640 0.047603 -3.640666 1.949965 -1.807287 4.282217 -2.944309 2.358042 -1.563864 3.431021 3.748016 -1.576655 2.150711 -4.821269 1.552953 2.876783 -1.760884 -2.507075 0.875981 2.108557 -2.795749 0.871215 4.174502 -2.602100 0.080236 -2.723773 1.201520 1.522638 -0.504327 -1.747028 -0.483151 2.507616 -2.338446 3.549916 0.079529 3.381856 -1.064275 2.636561 -3.241469 2.466563 2.413204 1.761812 -1.121091 1.502749 -1.181952 -2.488243 1.026554 6.541618 0.396099 -0.563376 -0.206219 -1.003327 2.429281 -3.218197 0.834122 0.517822 -5.435998 -1.391161 -0.927638 -4.929206 -1.224556 3.674146 -0.622385 -0.296158 1.865617 0.122995 -0.281738 2.103651 1.480782 3.958167 -0.287421 4.348259 3.443459 0.401898 -2.695518 1.261472 2.793417 -0.113506 1.090090 3.289310 2.671764 -0.115682 3.469362 -2.983060 -3.886470 -5.160017 4.424026 0.834252 -1.711861 -2.067110 0.719620 0.823164 1.000443 -0.673882 -0.908496 -2.061962 1.749518 2.145726 -3.935818 -0.354378 4.835182 0.168255 4.792622
每 2.579875 1.617760 -2.847336 -1.561427 0.319684 4.389985 3.040456 -0.378546 3.488843 -0.554880 -2.447732 -1.880593 2.370818 2.068501 1.074415 0.053450 -2.906789 -2.448590 -1.324983 1.098111 0.697898 -0.895799 1.621873 -0.749960 1.697335 0.841617 -1.229550 1.937330 -2.830934 3.121675 4.366144 -0.224642 -0.405994 3.047668 2.471213 -4.003739 -0.625873 0.926441 -0.632819 0.370800 -0.389902 -0.127068 -0.002145 -3.782668 1.306966 2.535532 1.492139 1.109982 -0.702087 4.099444 -0.031689 -1.894817 1.653952 -0.454723 1.855991 5.332273 0.340930 -1.754208 -0.784006 2.141095 -1.258776 -2.305603 1.423117 0.041892 1.212097 -3.581922 -1.222343 2.427002 -2.122029 -3.880588 3.239854 3.789696 -0.012527 -2.701685 4.460449 -0.207089 -1.133298 -4.030758 -0.100348 -0.249849 0.803397 -1.852323 3.232692 1.342905 2.221248 -3.193913 0.035459 -0.720918 -0.792647 -3.865019 -0.813586 0.185696 -2.573895 -1.296221 2.847412 6.919741 1.320669 1.349139 -1.182094 2.129389 -0.055282 0.654913 1.063952 3.182434 1.128599 -1.973930 -3.037050 -0.688380 0.765116 -0.089534 2.847218 0.005162 -2.235932 3.726214 0.062114 -2.236999 3.057306 3.194574 3.377913 -0.059421 -0.297447 2.325279 0.722749 -0.339794 2.547438 4.854475 -0.778348 0.428881
胞 0.219198 -1.993081 1.814568 -2.370025 0.670304 0.126303 -5.938202 4.936021 -1.564295 -2.551409 0.866170 -0.849605 0.452224 0.026845 1.261856 -2.424419 -4.086956 0.957388 3.241228 2.933241 1.502298 -2.443690 2.034617 -3.938657 -0.689290 0.392654 1.302513 -2.814092 1.397460 -6.892145 0.516871 -0.992213 -1.940869 3.023637 0.311203 3.446216 -0.631459 3.193232 0.127258 0.385700 1.127054 0.204123 4.452390 3.194041 -0.583126 -1.292750 0.932429 0.207635 -0.237164 1.149943 -3.857091 1.325158 -1.062560 -4.204006 -0.310120 1.922696 4.384569 -2.204154 -2.640752 1.652585 0.157035 -0.019160 0.313389 0.250677 -0.944948 2.185152 -1.288738 -0.602371 2.297447 0.532750 -1.594281 -1.141231 3.663891 3.242290 0.886969 0.178940 0.036129 -0.436712 -2.511815 -2.848575 1.451487 1.343276 -2.903955 5.145766 2.964007 0.314826 1.666985 -2.515454 0.095611 -1.031660 4.891335 -5.119362 -0.805580 -0.120790 -2.580786 -2.166819 0.641264 -2.166033 1.370890 4.092712 0.162305 3.439476 -2.124825 -0.476239 0.082045 0.133452 -0.944494 -2.522978 -1.166998 -6.010130 3.027418 -4.677878 0.118810 0.624031 -0.488691 3.968372 2.522908 1.223756 -3.520782 6.447433 1.195690 0.428494 -0.544569 2.509161 -1.381529 0.558421 4.488539 2.249533
部 -0.320258 0.148474 1.171674 -1.065423 -5.106273 -5.583488 -0.827207 0.324374 0.454422 -0.418186 -1.338514 2.169952 2.379045 -4.097549 -1.094150 0.658333 -0.670786 -1.465159 -2.020305 -2.084939 -1.509941 -0.245487 -1.760207 0.599417 -0.204147 -0.185321 1.755116 -0.255233 -0.006821 0.225899 -2.984365 -2.000145 0.847956 -0.207134 -1.144269 1.556021 -1.438333 1.549760 1.008410 -3.138660 0.165253 -0.599803 0.310309 0.418462 0.333183 3.417682 1.248175 -6.666082 -1.207297 -1.013562 0.018539 -0.271152 -0.131188 -1.558943 0.778633 -2.678333 -1.522599 4.004243 2.051401 1.494191 0.579630 0.399387 0.038160 2.914492 3.054317 0.364392 2.499157 -0.007167 4.124093 -4.501213 -3.205817 0.149845 -2.571418 5.911522 -0.772422 -2.348197 0.981569 1.161435 -2.638568 0.223481 -0.083314 -1.177168 3.606891 -1.111409 2.073310 2.287445 -1.459689 -1.377154 -1.628223 1.965827 -4.722581 -2.345515 -0.933102 -0.012966 4.366515 -1.153626 -0.484187 -2.542548 1.805745 -2.177235 3.573321 -1.828539 -5.399916 1.082927 -1.058716 -5.392681 -1.602646 -3.036608 1.405716 -0.031742 -1.235062 3.175191 -3.265028 0.351240 -4.153557 -2.971216 -3.104973 0.171329 -1.533471 -0.305065 0.932720 -2.241912 -0.834734 0.783641 -1.004186 -2.058929 5.303297 1.843674
院 5.870733 -0.436633 -3.162312 0.829229 -0.422886 0.109931 -0.923054 0.328159 2.209614 -0.568571 3.660939 -1.890609 2.397169 -0.445758 0.523253 -1.415381 1.139557 -0.385808 -0.513758 0.469604 -5.069926 -8.197719 -2.879724 3.106468 2.218104 1.426512 -2.800654 1.501322 -2.415851 0.014098 -1.871343 -6.727337 2.238217 -2.775260 -3.817040 0.488667 6.820910 -0.446537 0.509886 -2.036542 0.038003 0.403676 0.554989 6.514654 2.789484 -1.344664 4.415495 2.600292 0.534510 1.400851 -0.070452 2.146847 -3.065105 2.381308 -2.140774 0.759179 -2.431543 1.256956 -0.916626 -1.414893 2.319694 0.510269 3.877789 1.143515 -4.706309 -3.435138 0.591635 -4.152518 -3.244057 1.514602 1.370336 -2.024439 0.121208 5.494434 1.559353 -0.354094 1.915101 4.365445 -4.711780 -3.233716 -1.876529 2.871869 -1.650102 0.009019 -0.871760 -2.300564 3.273270 -1.199039 6.105343 -2.296790 -2.724322 -0.283756 0.613248 -3.802765 2.282883 4.498127 2.672232 0.618384 1.815510 0.332188 -0.866049 5.396346 1.691304 -1.950022 -2.711125 -0.491763 -2.870217 4.217222 0.326013 1.458070 -5.155176 -1.560593 4.487911 -0.010970 2.426144 -4.288831 -0.020785 -1.194831 -3.875811 0.652539 3.543517 3.923752 -0.793475 -2.911297 3.430651 -2.892155 -2.544294 4.308002
率 0.985826 -4.112024 1.801890 -4.211148 -0.449825 -0.421493 4.929123 1.132714 2.480870 1.878698 -0.837776 -0.398898 -4.168824 -4.592856 -5.704936 -1.489905 -0.397732 0.335380 -2.689354 1.970744 0.927755 1.085165 -1.754316 1.384544 6.706805 0.381696 1.627328 1.502975 4.150414 -3.492443 0.383699 1.404019 -1.116089 3.947344 -2.631864 2.451283 -5.110182 -1.984376 -0.538530 -2.295991 0.364097 -1.469151 3.781380 0.430817 1.082563 -0.698033 -2.039793 5.015954 -4.103817 2.411548 -0.875763 0.322699 -0.586584 -8.073128 -5.148867 -0.246967 -0.737103 -1.363923 -1.034065 -0.105429 0.034929 2.135551 -2.483551 5.163365 -0.083115 2.033075 -3.589540 -0.221163 -6.301334 1.750556 1.181790 6.425375 -2.323185 -4.031415 1.151246 -6.079512 0.702693 2.030788 2.423867 0.199502 -3.241209 -4.182556 -6.449010 0.795917 -3.483295 0.781389 -3.551842 1.653357 0.270422 -2.462987 3.190706 0.290365 -1.739524 -0.896805 2.891026 0.968959 2.707115 -3.154372 -1.295815 -2.674950 1.032299 -1.264346 0.665446 0.843681 -0.600535 0.552228 -6.292831 3.014363 -3.819084 0.480677 -0.613434 2.787554 -0.352471 1.862685 -1.780236 -0.017650 3.717269 3.300990 2.832453 -3.702189 0.923031 0.832061 -0.335719 -2.821572 0.639934 -0.728886 2.821816 -5.778479
小 1.389973 0.697245 -0.987358 -0.941470 -0.803676 0.681991 -2.820211 4.941712 -4.519523 3.493392 0.797905 3.607846 -0.197529 1.518029 1.962206 -2.752825 -0.100520 3.174295 1.660374 0.102828 3.161720 -0.213536 1.864166 0.978081 -1.646836 -1.107819 3.148690 -2.561203 -0.880708 -0.454155 4.839233 0.188636 -2.604719 -0.536517 -3.117719 3.405292 -3.143930 1.981583 -2.777466 1.682336 1.985848 -2.053264 -1.054410 1.250185 1.211010 1.484529 -2.492043 2.920523 -0.545414 4.605696 0.222205 2.655156 1.205828 4.057932 0.973415 -1.768583 -0.255051 0.839264 2.485321 0.793074 -5.039770 -3.443483 1.177522 0.524108 -0.457684 -4.818101 -1.295361 -5.007876 -1.116975 0.251438 -0.660179 -1.383752 2.512139 3.172992 -0.721662 2.100816 2.973964 -0.853886 -3.300491 0.060803 -4.613747 -4.708601 3.281932 0.195071 -1.634574 -4.585583 -0.438132 2.783884 -0.067417 -0.070492 3.722920 -1.904115 -5.479501 -1.342857 -2.140614 -1.583175 -4.695094 5.855951 -1.122023 1.249688 5.702106 -3.355414 3.308452 1.367749 -0.682388 2.639116 -2.923822 3.044873 -0.359215 1.667226 0.554040 0.965371 1.774714 -1.837018 -7.405135 0.736687 4.122497 1.851228 0.125843 5.197948 -1.451043 -3.133629 -3.589678 1.521152 -0.580502 -1.057588 0.183757 1.821475
测 0.385983 4.647883 -1.163632 0.784483 -2.595047 -1.416623 -1.684963 -0.295678 5.608219 -0.140794 0.674774 -1.151780 0.150011 -4.819559 3.509629 2.359919 -1.237407 -0.442146 -5.895481 1.136717 -0.419903 -1.177042 0.220639 -1.890138 -0.029838 0.309857 -3.068566 -1.769613 1.264417 1.664164 0.116165 -2.117105 -0.559717 -1.323335 3.587611 -3.375088 -4.685451 -0.047659 -5.084762 -3.832906 -0.075529 2.854831 0.875086 3.146608 -2.533527 -0.289165 2.879118 4.650021 1.409341 -3.799870 0.653536 -1.824711 0.769838 -0.313601 -2.451873 1.667918 -1.238490 0.590091 -0.649335 -1.912521 -4.505526 0.744658 8.088155 0.627857 3.214389 1.761847 0.056103 -2.223880 -4.112427 5.287993 0.944998 -0.793930 0.860043 -3.290471 -0.177832 -0.004639 0.497783 -2.895273 -2.399272 -1.947260 -1.384362 0.809823 2.188108 -1.503053 -1.504217 -2.755440 1.229191 0.327166 -1.060185 1.985906 1.855987 -1.352089 1.073057 -0.855675 3.987562 -2.784397 5.401812 2.063927 4.417847 3.166867 2.105804 -0.301069 -2.677144 -1.965647 1.700424 4.383420 -1.349219 -1.039642 3.536115 -4.127785 5.831774 1.668985 -1.726851 0.057458 -6.128273 -2.360726 1.318624 1.634575 -2.376116 2.919087 2.758487 -0.857344 -3.230461 -4.639611 -2.945260 1.603037 -3.059842 1.547773
情 -0.503795 -0.520545 2.668473 -4.679181 -0.393586 -0.092408 3.664853 -1.024513 -2.721138 2.003375 -5.032465 -0.923893 -1.921825 0.391417 1.179440 4.143646 -4.721308 -0.071758 1.544641 -0.067707 3.835102 1.499322 3.999378 -1.017915 -1.599790 0.347054 -0.638224 -1.532584 -3.721514 1.949114 -1.097166 1.367381 -0.907233 1.594727 -3.274109 -3.672117 -0.725567 3.494839 -0.622300 -0.812540 -1.704356 3.096088 -0.955599 0.786524 -1.170702 -1.002038 -0.900154 0.606283 3.914161 -5.433224 0.388124 2.276161 -5.769194 -2.034407 3.466334 -0.870585 0.309166 -2.007341 2.553245 -1.763564 0.877240 -1.638095 3.668866 1.140469 -1.808816 1.322406 -0.355389 -3.290255 0.101929 3.620056 -3.572185 0.034800 0.916914 0.131451 0.364528 0.571183 4.482863 1.019859 -1.185663 -2.149917 -4.210450 0.083820 -0.644248 -3.768886 -1.445917 0.933517 1.444247 -1.221149 2.473701 -1.350304 -0.497589 4.190598 2.572655 -2.093559 -2.688096 -2.691818 1.618456 1.722242 1.846158 -0.535455 0.213802 -0.233576 -0.302200 -0.723869 2.266803 -0.548852 -2.851665 -3.464641 0.395279 3.439595 -1.902983 1.696106 1.329080 0.042273 2.074100 0.810549 1.440157 -2.411104 3.531915 0.095367 1.980775 -1.002972 7.801899 6.097339 0.537663 0.430385 -3.620091 4.095447
及 2.299861 -2.704207 -3.797864 2.123926 2.063071 -0.845816 0.189049 -1.217608 0.809932 -4.588649 -0.140865 5.760146 2.555690 -2.009625 1.340313 1.900410 0.878961 3.924458 -4.140257 2.566528 0.058218 5.464133 -1.908450 0.913336 -0.219871 -2.678847 2.331436 2.414880 2.130161 0.900923 2.929693 4.194137 -0.422290 1.058395 2.429507 0.552623 -1.474224 5.253712 -0.408053 -3.363486 2.753575 -2.685836 1.373856 2.658063 1.808354 1.452397 0.729751 0.503038 1.503382 0.429499 0.391286 1.587912 -5.007529 0.897948 -3.680840 -1.698311 -0.589155 3.242476 3.385596 -1.073551 3.450806 -1.186457 -2.904389 -0.620959 -1.949170 -0.469304 -0.283841 -1.438432 6.343460 -6.217658 -4.249518 -2.131658 -3.216967 -1.747566 4.765028 1.673987 -0.196414 -2.244416 -3.325034 1.984802 -0.385369 -0.650652 -1.852308 -2.663204 2.979583 8.130809 -2.157491 0.550858 0.280930 -1.951602 -1.922644 -4.945601 -1.646884 -1.648502 -1.182818 0.140628 0.108757 -0.903101 -1.166322 3.662681 -1.870440 -2.463911 4.971459 -0.552960 -4.054734 -1.917619 -0.502761 0.217402 -0.939947 0.130420 1.995240 3.098861 -0.341128 -4.407758 3.575661 2.298111 2.900764 1.099916 2.290544 -1.991809 4.886454 4.068952 -1.768677 1.072338 -2.535767 -0.308606 0.247390 -2.822326
间 -0.176344 -5.240535 -5.259012 3.497610 -2.389311 -3.707389 3.803582 1.842238 -0.197359 1.682336 -2.726433 -2.096660 0.837308 -1.495052 0.030350 2.310745 1.418861 4.602080 1.967840 2.294807 3.779244 -3.002584 0.853380 1.037954 4.686645 1.627598 0.503187 -4.507960 1.488162 1.432925 0.321568 2.897723 -3.024352 3.100733 -1.866600 0.067874 -4.810917 1.461990 3.320608 -2.571306 3.472638 -5.234466 -4.386728 1.513407 2.445519 -0.829307 0.896142 1.514297 2.219195 0.225531 -2.534579 -0.575758 3.337064 3.655802 2.387686 -1.006677 -3.743382 1.948030 1.012370 -3.009247 -1.398413 2.279913 1.330323 1.675874 -3.518065 -3.027009 -5.406128 -5.809272 -0.437496 -5.427411 1.283373 -1.607013 0.545993 4.667503 1.693177 -0.111122 1.317618 2.416899 2.758154 -0.322185 -1.099672 0.224521 1.969128 1.141177 -1.819168 -5.749057 2.690222 -0.031701 0.694728 0.848040 0.178317 -4.441324 -2.522901 2.743038 1.487943 -0.234639 -2.394068 2.553095 -3.859600 -0.567503 1.837764 -1.539148 3.623600 -0.952946 5.992625 -0.651778 0.614500 0.002306 1.696424 0.454524 -2.003968 2.018887 0.607891 3.362134 -4.443565 -3.971979 0.671353 1.124379 3.037958 3.068500 1.243784 -3.403404 1.383975 3.158415 -0.999679 3.186771 0.510273 0.349045
显 1.931552 5.740901 4.458610 1.539358 0.463063 -4.169457 -2.570324 2.870347 -3.762164 -0.321800 -3.137153 -0.890984 -2.684611 0.109893 0.947027 0.758497 3.311734 1.856227 -3.235935 1.200597 -0.412232 1.316607 -1.678474 0.657928 1.659088 0.992890 0.858659 1.024944 1.469546 1.532241 -3.980919 -0.644552 -2.607394 1.067330 3.747913 5.377594 1.472564 -1.225940 -3.507474 -0.660008 -1.230851 -1.093845 -1.390387 -1.518664 -1.553215 0.238539 0.204767 -0.958752 1.349551 -1.258261 -1.560223 3.164264 -0.304070 -3.799513 -0.756805 -0.764224 -8.549186 0.299320 0.305921 0.358398 1.131395 3.247827 -4.433581 1.611258 -1.856787 -1.848222 4.694313 -3.357487 -0.488910 1.354963 0.753539 -3.348792 -3.768941 2.131655 -2.547419 -0.604572 -1.637605 0.310165 1.061967 -1.676747 -1.485405 -5.186469 -1.627855 -1.796175 1.880096 1.563250 -4.183950 -1.292463 2.321451 -4.394464 0.157484 -1.357533 2.016280 2.590539 3.469460 -0.034899 -2.149147 1.003619 -0.461959 -0.302725 -1.554167 -1.106512 -0.114235 -2.253966 0.423533 -0.629003 -1.385762 -1.781134 0.290676 0.893566 1.644356 1.705432 -2.558821 -1.882093 2.425900 -0.141092 0.968694 0.846058 2.195311 1.858664 -0.321603 -0.211913 2.003283 -0.174361 -0.674390 -0.405587 1.852500 3.583193
医 -2.267077 -1.300874 2.532780 2.311604 2.173839 -1.822782 1.286721 -5.818080 0.469840 1.836586 -2.085673 1.987618 0.793853 -5.979526 -1.805175 2.007388 1.449275 -0.084375 1.575325 0.377264 3.722389 2.128076 1.789147 0.834443 -3.521109 -0.365761 -0.808486 0.245703 -1.597469 1.956985 0.143153 3.200889 -1.175517 3.568908 1.800282 1.355514 -3.772568 0.800727 0.005262 1.395782 1.195212 1.873767 -0.283238 6.526321 3.662842 3.795673 -2.429496 3.233444 0.874470 -0.773907 -3.189457 2.591156 -0.519684 -2.311854 -2.101191 0.560765 -2.958929 -3.367613 -2.434795 -0.563344 1.456853 -0.571821 -0.920136 -3.383739 1.381188 1.359332 -0.766201 -0.107630 4.031905 0.251885 -2.543066 0.566806 5.144992 -5.365497 1.181701 0.217187 -3.352264 -1.156870 1.547889 -0.799486 3.359171 0.338214 -0.983272 6.649065 0.383012 -4.952637 -4.664606 -4.804439 1.486906 3.713738 -0.128995 0.072878 2.898358 -1.113295 -6.971600 0.740294 -2.249958 -1.798084 -0.385526 1.748771 3.605098 -2.840815 0.831718 3.820769 2.424301 0.020139 3.161989 -2.312599 0.894464 -2.332542 1.248106 -0.354279 0.992636 5.099540 0.259524 -2.679438 -9.078119 -0.886225 3.774005 4.485454 -1.551773 -2.155392 0.751490 -1.143495 5.474354 -0.713182 -2.906275 -2.622951
中 -4.028270 -1.940367 0.308457 0.797113 4.378521 -0.205752 -0.573689 -0.768496 0.768823 -0.742614 -1.324211 -0.996889 0.866987 1.755068 -1.710000 0.028245 -1.057797 -1.807743 2.326087 0.098893 -3.261900 -3.896145 -1.000448 -0.117150 3.180655 2.732235 0.444174 -0.114922 4.399474 2.050680 -1.265801 3.219787 3.584609 -1.142724 -2.831599 0.781242 1.481732 -3.508057 1.639335 -1.635334 -1.470692 -4.049555 -0.115054 -0.024353 -1.226621 -3.189126 0.603696 -3.834110 -1.624927 -1.292608 -0.259991 -3.617266 0.000629 -1.579472 2.419513 2.326035 -1.261594 -1.508674 -1.079050 2.160166 -2.926680 -0.453138 2.289153 -3.978637 -3.383079 -0.942071 2.370553 -3.314895 1.329535 -0.790748 -0.075568 -0.045228 -0.038244 -1.424687 -1.072342 2.868891 1.818119 0.119823 -5.235373 -1.767370 -0.537181 -0.853060 2.864449 -3.195642 6.144091 3.648559 1.086826 -0.217567 -0.847821 -3.699266 -1.224782 -2.651778 -2.465976 0.349339 0.038994 -3.218712 -0.004614 -2.000870 -4.880601 1.668618 0.476080 -0.624525 -2.901721 2.104511 -0.574950 3.767160 0.381698 0.047547 2.525599 0.656104 -0.573898 3.716991 6.153575 2.066412 1.552544 1.033376 3.366019 -0.880736 0.968599 -0.650936 2.528495 2.983055 -0.492396 2.942921 -2.150494 -0.195492 0.108354 1.532065
状 -3.543615 2.704124 5.188577 -1.238970 -1.614161 -1.463649 -1.835219 1.294518 -8.301892 0.682065 0.063634 2.362258 -4.406911 0.178268 -0.067465 -0.326356 -3.877956 2.538676 -2.208304 2.472548 5.579380 -1.913498 -3.103760 2.011653 -1.763268 4.224512 -3.775112 3.145406 -8.461479 -0.237332 -2.629860 5.062766 -0.118528 0.483038 -1.714395 -6.015844 2.959778 0.397682 0.982479 1.217269 2.874537 0.774872 -1.891814 -1.049431 2.491930 -0.572720 -3.987312 1.374872 -2.753349 -2.682302 -4.918911 0.594898 3.009180 0.481084 0.077002 -5.255281 -0.934562 -0.447428 0.799471 -2.484847 -2.279008 -1.012078 -1.995333 1.213415 -1.407036 -2.331206 1.258531 0.404248 -2.285871 0.910488 3.678970 -2.485167 1.540391 0.765465 -0.354062 0.313812 -0.297626 0.220114 -2.641962 -1.335441 -5.008592 2.838166 2.123739 0.059937 1.155883 -1.719376 0.820985 3.868351 -0.264322 0.073660 -3.106667 -2.685933 3.311332 -0.844181 -2.664582 -3.555678 1.729435 -0.115718 -2.335503 2.160364 1.511649 2.206626 -1.752856 3.866200 -0.170556 -0.703813 1.470818 0.939867 -0.265191 0.621534 -3.984287 -0.998101 2.087025 0.096834 1.726383 2.577828 -2.158972 0.130656 1.992210 3.903058 2.568602 2.094279 -1.269784 -3.766300 1.346252 -2.693983 1.595349 0.144028
闻 -1.507697 -2.755487 0.171093 -1.519918 3.337749 1.572368 5.487475 -5.552824 2.170240 -0.789568 -1.351328 -1.859039 -3.286884 2.081743 0.333826 1.469212 -1.875820 -2.285630 -2.786015 5.811798 -7.028226 8.593884 -3.088888 1.052235 -2.036115 -0.396082 4.313626 1.192456 4.708278 -2.610328 -5.159965 0.773768 2.120143 1.194156 -6.952822 -2.758835 2.892022 3.539706 2.447479 3.748162 2.781815 -0.318499 0.749061 -5.534942 -0.856557 3.476961 0.911126 3.195693 2.958212 1.902242 -3.087591 1.402568 2.392738 3.163112 -2.518190 -1.691232 -2.114116 1.522782 5.600349 -0.433888 5.538464 0.336167 -1.880591 4.280710 -5.939051 2.345750 -1.087133 -5.438589 0.699936 5.167843 1.315978 -0.920445 -5.107415 -0.609655 4.239484 1.752520 1.757106 -1.149877 1.338145 -2.868999 3.183160 0.480984 -3.604929 -2.477895 5.262846 8.608837 -4.047247 0.513619 -5.600175 -0.265874 -3.443976 -0.768346 -1.612979 -2.134391 -0.067509 -0.544190 1.804196 1.163862 -0.230412 -6.120043 -0.646949 2.586809 2.803345 5.899222 -3.627298 2.338787 -3.700658 -5.091915 -2.991011 -4.889692 5.391297 1.222162 -1.625765 -4.181056 -5.152124 -1.545359 -1.716972 -2.457268 -4.786860 0.824088 2.974637 -0.871748 -1.908309 1.628835 -5.729445 -3.593142 1.164442 -2.132009
明 -2.460017 -3.148266 -0.505765 1.875000 -1.178290 -0.876858 2.750319 -0.681449 1.177478 1.272309 0.611402 1.760972 2.995070 -3.048850 -2.099468 -0.957752 -4.636938 0.482032 3.145556 -1.803223 -1.079939 2.948227 -1.603492 -3.271056 -1.932944 -0.796558 2.459543 -0.970343 -1.631221 0.239840 0.725779 1.622233 -2.055832 -1.055910 -3.457024 -3.433225 -3.594084 0.270360 2.240016 0.846817 1.556221 -0.972317 0.491242 -1.418336 2.372071 -3.432769 1.338285 -0.378795 -1.984259 -4.288408 -3.031386 -0.995521 1.504900 -2.660681 0.303041 1.174184 2.482401 -0.490265 -2.465550 4.552100 -1.457188 -5.481282 1.024371 0.390138 2.960255 1.673180 -0.428291 3.731485 -2.799024 -2.863822 -1.153263 -1.929586 -0.834700 -0.209675 1.819228 -2.087667 -2.619747 1.172814 1.109982 -0.352507 -1.744017 0.494156 0.160640 -3.134830 2.032479 -0.716092 4.462676 0.080605 -0.454905 0.673400 -1.368647 -2.781980 -1.350640 -3.017152 -1.794674 2.608701 3.927260 1.645879 -1.782817 -1.473474 -0.787132 -1.381742 -1.879710 -0.944226 -3.150002 -3.992040 2.119997 5.247585 -3.052541 0.493341 -2.479352 4.218923 -0.636296 -6.912420 -3.418127 -2.405974 0.926966 -3.065541 -4.540423 -1.019069 1.528848 0.678477 -0.406981 0.152243 1.634084 -2.294513 -3.545815 -2.723255
检 -2.086390 -2.497380 4.394355 -0.684125 -0.865678 -0.443916 -1.874175 5.380864 1.385488 -0.928615 1.825373 0.558105 -0.046656 1.764213 -0.998611 -0.610019 -2.837843 -3.174717 0.810754 2.190160 -1.633415 -1.158426 3.091115 2.367297 3.937161 2.672465 3.555356 -1.383601 0.998865 0.630544 -0.205451 -2.236613 4.158897 0.307896 -3.781309 3.523547 0.533411 -0.938136 -1.324132 2.814615 0.755567 1.674437 -1.525906 1.292617 4.797062 -2.472057 -0.787351 0.765285 1.749411 -1.486955 -1.349914 0.392710 4.181704 0.815104 0.748842 0.906787 0.984364 -4.543843 1.542325 -0.188119 1.361157 0.016725 0.677211 -0.577472 3.447983 -0.373859 -0.420722 -5.270279 4.216794 0.031733 -0.236492 -2.571098 -0.535551 4.991179 -2.238745 -2.361761 -4.406821 4.023526 -1.292552 -0.282635 0.942955 3.205216 1.226326 -1.827661 -1.417730 -4.739131 1.830292 -1.074743 -1.554838 1.521174 1.890941 1.809822 3.703400 -1.235009 4.307229 2.799708 -3.217214 -3.620067 -1.262445 -0.647863 2.367075 -0.314377 5.292728 -1.855864 -0.777951 -1.337237 1.713539 0.058182 -3.322766 2.781204 -1.019332 1.338446 2.566516 3.132116 -0.551542 3.257566 -0.416611 -0.710186 -1.997551 -2.135941 -1.932751 -2.638270 -0.035239 1.779069 -2.961970 -1.564406 1.351273 -0.610677
年 3.184966 -0.827644 0.516547 1.929741 -1.995866 -3.992124 3.487285 2.648782 -1.740188 0.658985 1.476772 1.402739 -1.546909 -3.019063 -0.245746 -2.487773 -1.998998 -0.249101 -0.265201 1.133122 2.168714 -2.884001 2.801339 -1.097828 1.540352 9.580935 0.870072 -1.164073 0.428032 0.189949 -2.660381 1.647470 -1.256919 -0.897659 0.001734 0.311056 2.211198 -2.298207 0.353916 5.353480 -3.246152 2.909344 1.518469 0.871936 0.166690 -0.924640 1.429953 -3.292575 0.095367 1.411047 0.693838 1.082575 -4.431551 1.010196 -1.865867 1.985849 0.387299 0.517965 0.616777 -0.128458 1.458355 -1.001748 3.459092 -1.535289 -1.001480 -3.621094 -3.687000 1.109452 -0.633786 -4.007308 -1.385281 -3.332706 1.342535 0.091050 2.925308 -2.154040 -2.245379 0.206385 -0.482357 -1.480956 1.164509 -3.061929 0.184002 3.459002 -1.024121 -3.870936 1.851685 1.505022 -3.601044 4.379016 -2.454239 -0.410696 1.240326 -3.588104 1.196684 2.749542 -0.923602 0.835224 2.069309 -3.961528 -3.250947 0.967420 0.730471 0.236819 -5.213056 -0.882751 -1.583089 0.212496 3.881495 3.333406 1.452901 -1.871363 -4.943995 -1.096312 0.625716 -4.331577 1.580119 -2.701403 3.231504 1.320887 3.067377 -1.304395 0.314940 2.599988 5.491816 2.234313 -3.498910 1.421139
冠 -2.017550 0.445485 -3.063412 0.906655 -0.194552 2.749843 0.695923 3.236469 2.823166 0.997533 3.843196 4.451366 -2.484315 -0.553845 0.563873 1.168701 3.278305 -7.138881 -0.092154 -0.825129 0.175858 -4.215459 2.840584 3.092252 -1.264135 0.485328 0.504349 -3.189427 4.419709 0.588572 -1.639832 -0.249070 0.026023 -2.467983 -3.002754 -1.536454 -1.315361 1.017799 -0.417094 0.584851 -1.241961 -2.373564 -0.294964 3.977952 0.865547 -5.014665 -0.705435 -0.104803 0.369102 1.614229 0.781593 0.374978 -2.033387 -1.183512 4.980320 0.073199 -4.216428 2.095386 -1.145449 4.121113 1.838518 4.025361 0.229662 2.013595 -1.264039 3.177319 -0.274586 -0.549514 -1.272419 3.029348 -1.533759 -4.964220 1.340378 2.186911 1.493638 -0.818767 -0.445101 9.035130 4.287088 -0.131928 -1.032908 1.518272 -1.282779 -2.786477 -0.025305 4.584201 -2.422726 -0.689305 0.391622 -0.408504 5.650078 3.912282 -4.051015 3.138988 -0.783950 0.098363 2.294501 4.071182 -2.103718 -3.517823 -3.521607 -2.001937 2.612183 2.161313 -0.353129 -1.429381 2.234498 -0.830012 0.304009 -0.606848 4.790431 -0.698428 4.015762 3.219288 3.598497 -3.271039 -0.677377 -3.376301 4.292758 1.729579 0.927360 1.557840 2.730684 -1.423362 2.849386 0.809908 -5.781981 -1.410245
级 -1.971401 4.334200 2.504683 0.427209 -1.538450 -0.722634 -0.097431 4.699398 2.205358 2.553118 1.495708 2.612316 2.857830 -1.818082 1.452533 1.884534 0.404786 -3.788663 -0.896765 0.836734 -0.553191 3.315720 2.266949 -4.552638 -1.643476 4.655807 1.051561 -5.094727 1.659167 -2.798748 -2.614407 1.152293 1.935976 0.735477 -1.826963 0.536923 -1.566845 -0.144455 3.311799 0.327078 4.540673 1.266762 -1.770847 2.018001 1.653441 -2.116126 2.217451 -4.364994 2.406871 1.112227 8.569263 -1.190243 -1.185239 -3.833430 -0.900944 -0.982219 1.206655 1.953928 0.973930 -1.690289 0.737197 1.245766 -2.173821 -1.750115 -2.255984 3.976448 -6.457554 1.672126 -3.800509 4.072456 -1.107714 0.292565 -0.846044 -1.015617 -4.007490 -1.290992 4.250447 1.588175 3.774028 -1.804062 -0.140398 -3.316391 -0.212073 5.043339 0.317370 1.521260 0.756821 2.654193 -2.475938 0.694836 -2.951287 4.767814 -0.044877 3.657998 -5.284460 2.469591 3.740433 -1.597096 -3.206232 -0.087454 0.443083 0.832974 0.492353 -2.324301 -0.357146 1.665381 5.145729 -0.039103 4.712786 2.248241 -2.851850 0.132856 3.786290 2.886499 2.072851 3.245337 -2.204439 0.221603 0.485029 -1.987096 -1.747228 4.101594 3.009569 -2.290757 -1.946500 5.086583 3.371236 1.856862
疗 1.591034 -0.084307 2.880308 4.226126 -1.900776 3.368866 -2.571427 -0.182154 -0.208366 -4.390207 -0.281254 -5.859222 -1.607249 1.668376 1.102580 1.954453 -3.069527 1.881116 2.774587 0.024801 -4.006465 -1.530033 -0.702454 -3.474033 -0.644664 2.934768 -0.053858 -7.091273 -1.646796 0.982423 -1.776489 0.161660 -2.413440 -1.195834 0.823103 -4.009259 0.257280 1.550941 -2.435322 -0.352957 -0.150944 0.966896 -0.355400 3.172840 -1.578911 -1.139028 0.307506 -0.872967 1.939592 2.007899 -2.321803 0.376388 -1.818145 -1.865053 4.473110 1.204919 0.278048 -0.622495 -1.597441 0.587945 1.863115 3.512563 -2.451259 1.196433 2.004223 -1.411334 -0.949202 -0.271428 4.410174 3.879091 0.139757 3.835207 -1.238006 0.979597 -0.411529 -1.624894 0.861776 2.964059 0.317300 -2.957587 3.082533 4.057263 1.811888 -0.589436 0.002804 -0.886601 -0.450494 -1.272540 4.598410 1.395548 0.514109 -2.575030 2.768723 -0.783649 -3.643838 2.894507 -0.240269 0.793594 1.021239 -3.312877 -3.312930 -2.760974 2.110442 3.840207 -3.102301 -1.542906 1.090929 1.819251 -0.938961 -0.789504 -2.981074 0.988836 2.527642 2.574556 3.704042 -3.958465 0.921741 -1.321085 4.490141 0.441017 0.566480 -3.088626 -2.664500 -2.097032 2.123498 1.405778 -0.450856 2.006015
脏 -2.422710 -0.762335 -1.587493 1.055194 -2.565377 -3.483369 -1.264174 0.568065 -0.035361 -0.025370 -1.790917 0.125311 -4.260043 -0.025253 -2.451078 -1.899791 1.216646 -3.789530 -2.382380 1.550987 -2.481148 1.513706 -3.033735 -0.554781 1.600785 0.293865 0.850416 -2.519736 1.760961 -1.732324 2.385068 -0.244454 3.306102 1.681210 -1.836253 0.436398 2.924096 5.013120 3.518265 -2.855787 -2.034781 -0.282480 -1.240136 0.174666 -0.088152 -3.978511 0.953435 -0.318671 -1.383549 1.408244 3.814163 3.442822 -1.276613 -3.701055 2.735067 -2.030834 -2.698593 0.360769 -1.440639 0.029584 2.741948 3.623374 1.211128 0.545039 3.599132 0.974994 2.612078 -0.350151 -1.700439 -2.108818 -0.058438 -3.524659 5.170986 -0.444146 0.012404 -3.137726 2.807056 3.303834 0.222510 1.873532 -2.424861 -1.793868 -3.558267 -4.076098 -1.370700 7.203310 1.495024 0.669328 2.732375 3.641536 1.053864 -0.251465 0.689924 4.312833 -2.366617 0.830428 2.011651 1.922744 -2.980986 0.030404 -0.270575 0.087895 -0.114631 -1.007419 0.466405 1.142178 1.751909 0.053676 -0.589074 1.831371 1.475786 -0.120350 -2.253170 1.908279 -2.653016 3.020292 -2.980151 -0.947362 2.678214 -3.866759 3.063843 1.947175 0.505168 -1.905733 0.620915 -4.086185 -0.329258 -0.151913
症 2.549598 -1.722801 1.747112 0.492687 4.087562 2.451796 -0.332737 -0.733208 4.247141 -2.182649 2.666957 -1.976155 0.164067 1.625932 1.825547 3.437201 4.456598 2.179119 1.999637 -3.218602 -4.699344 0.231709 3.462731 -2.303329 1.527881 -4.365772 3.057367 -3.632464 0.690995 -1.827613 1.197062 -3.207676 0.552196 -0.443306 1.508489 5.104263 0.787869 -2.448090 -0.656350 1.832673 -0.350133 -0.728637 -1.183254 0.415622 -3.637102 0.014270 3.910209 1.192542 3.818058 -1.957103 5.356351 -1.998305 -0.843882 -1.982908 1.358363 0.834958 3.521403 1.239169 0.137132 5.916719 0.334702 3.329389 0.977072 -1.322354 -0.058564 3.107521 1.477025 -0.269237 -5.500109 1.700558 -3.514058 3.493844 1.116813 3.402548 -1.350225 0.789363 0.234017 -1.163087 3.245453 2.548077 1.234386 -3.145221 -1.787092 2.228239 -0.895669 -1.125584 -0.596232 -3.308099 1.242969 3.524939 2.003071 0.827640 0.714095 0.329982 -3.496595 1.537120 -0.881851 -2.182306 2.052391 -4.871668 -1.256488 -0.111403 2.283991 -2.169161 2.962381 -0.530679 1.190596 0.625656 0.428875 -0.394070 -2.367840 -0.006549 -1.184083 -1.502640 -0.215339 -3.741126 0.965532 -7.331409 0.453671 6.059345 1.627517 -2.928336 1.769477 6.367337 0.994262 3.855841 -1.614959 -0.686203
红 2.296520 4.358362 1.970793 -2.368630 1.145756 5.937994 -2.509188 2.459994 -0.789383 -2.679647 0.956113 3.477040 -0.293536 0.103573 2.767390 -4.851820 -0.625607 0.811076 4.165727 -1.289440 -0.324249 1.522125 -0.829687 2.176172 -2.483138 2.362288 -2.609818 -2.432324 0.938372 -0.218691 -4.552114 -2.158320 2.744003 1.079302 2.746472 4.805491 -4.599004 -0.082558 -0.116865 0.091548 3.128503 4.950512 2.747432 -1.085575 -0.469877 -0.689379 -1.663547 2.670133 -0.358339 2.495686 -0.986795 -0.492726 3.067611 -1.765079 -2.904769 1.852578 5.052596 3.905159 2.446377 -4.332898 -2.626265 0.586705 3.193462 -1.107209 5.864177 -0.949826 0.193175 3.242492 1.104177 -4.086790 1.929155 -5.751342 1.210103 -0.769947 -1.537900 2.929897 -0.784808 3.297347 -2.010523 1.649316 -3.339228 0.934432 2.611772 -2.771113 -0.377622 1.019117 -2.322475 -3.403132 -2.528410 -3.755112 3.068403 -4.771222 1.524819 3.174601 -3.387783 -3.529433 -0.001444 1.193340 -1.809795 5.017712 0.298804 1.011063 1.148354 -3.835613 2.671082 0.599376 2.960842 -0.183556 -0.558753 1.003082 -1.719403 4.172874 3.341852 -0.455317 4.596350 1.382464 1.533641 4.182801 -3.778772 2.916875 3.984781 0.792978 -2.050265 2.259286 0.789628 3.198453 2.232742 2.375342
度 0.229397 2.010520 3.477224 -4.802345 -0.874862 1.172251 0.224829 -0.193366 -3.960756 3.924041 3.765100 0.812012 0.445292 -0.941871 -0.960601 1.933518 4.481541 4.404384 -3.019391 1.555577 2.040290 -3.903411 2.847941 1.094699 -8.684139 -5.001416 -1.961720 -5.256734 1.660983 0.253246 -5.011661 -1.346186 -1.611118 -2.258560 2.999861 -0.686878 0.596323 5.128671 -1.359281 1.945619 -2.532571 -0.407121 1.449237 -1.087148 -1.183029 -3.394850 -2.482596 4.653843 2.629271 -0.107884 -0.940547 0.815075 1.788684 1.167417 -4.187829 1.313838 -0.495148 5.780025 -1.275219 -0.086743 1.531050 3.958963 1.949895 5.152952 1.768095 2.371429 -4.199313 1.552530 -3.499805 -4.147467 -3.551981 -1.550158 -1.987912 3.150864 -0.293244 0.289779 -1.600269 1.214405 2.846451 8.603454 4.058368 0.455538 -1.899315 2.340575 0.589839 -3.862568 -1.314337 4.441157 -0.146927 2.124374 -0.634475 -2.329025 -0.904706 1.773474 -2.639789 2.649439 -2.259857 -3.593894 -2.283895 1.696017 -0.239250 3.064379 0.843197 -2.660108 0.042660 -2.873144 -0.532447 -2.707530 0.045337 -0.232123 -3.766496 -5.027852 0.934398 -2.460780 -6.004651 -1.567440 -0.841612 0.382552 -1.802655 0.297782 -1.432283 -2.468242 -1.034128 0.121697 -3.662774 0.465240 5.178576 -1.881618
肢 -5.392474 10.151442 -2.841893 -0.047568 -2.118739 1.158921 5.775075 1.311751 -3.347444 2.162708 1.737514 3.306187 -1.772971 -1.871284 0.822418 0.740782 3.296669 5.507265 -3.992887 -4.685042 -9.256073 -2.034412 -2.942359 0.428152 0.926207 2.159051 -9.519537 2.480385 -3.520447 -1.089387 -1.595685 4.787628 -3.246708 1.301837 -1.398521 3.942695 -4.592930 -4.097011 8.505509 2.158278 0.459388 -0.987854 4.078290 -1.681033 -1.798178 -3.572976 3.744905 -0.792579 -1.474456 -0.475632 4.147811 6.181383 0.285645 0.868037 0.880589 -0.365121 -2.943111 -0.856251 1.485876 -1.602564 -1.695142 3.110104 -1.535821 4.568576 -1.660347 0.791514 3.447935 0.739918 3.168145 2.061675 0.685969 0.535549 -2.435721 -1.283809 3.397997 -3.709384 -3.365325 -0.560860 0.318812 2.622289 -1.638142 2.634781 -8.623885 -0.579431 5.029985 -4.697802 0.338589 -3.947433 -3.722318 3.041173 2.519776 -1.039863 -0.427250 -2.558085 -2.082354 -3.624597 1.411196 -1.083887 -1.813310 2.395272 -2.441250 -3.680693 4.901084 3.095850 -0.086220 -1.302631 1.202159 1.546067 3.912382 3.557270 0.364602 -0.117599 1.984527 -5.604512 -1.866723 -1.404397 2.324116 -4.888996 2.491572 -0.553032 -0.900324 2.265322 -2.083514 -0.953186 -1.006190 -0.725138 -1.060525 -1.823224
治 -0.282944 -1.157142 -1.887977 1.021115 -0.475685 -2.543123 1.390794 0.628185 3.113253 -0.228316 1.995246 3.202881 0.777183 -3.722785 1.726950 -0.866352 4.057674 -1.834830 -1.385349 -0.552407 2.350225 -0.070427 -1.680238 0.698657 -0.170408 -1.228191 -0.777731 4.994244 -5.278403 3.124264 2.834434 -1.086168 -0.639958 5.103498 -1.323309 5.018354 1.837663 -5.466118 -0.874319 -1.391137 -1.079292 -0.532443 0.711928 0.064677 -1.718951 -3.560757 2.700956 5.220117 1.661405 -4.526908 -0.003701 1.363657 -3.044075 2.542041 0.167547 1.641369 4.500769 -5.633639 0.478032 2.559972 -3.194587 -4.173543 0.725616 -4.989413 -3.761338 -0.168967 0.455374 -0.279792 -0.049643 2.723231 1.741845 -2.602827 -1.194142 2.989169 -3.809829 1.092625 -0.943828 1.354371 2.231878 1.202352 -2.749969 3.233482 -1.016979 3.136214 -4.986790 0.604278 -1.780277 -0.389346 -1.854574 -0.098926 -4.289308 2.831470 -3.580389 1.154259 2.454817 2.397623 -1.031110 1.203928 -3.392822 0.404690 3.974030 1.022977 0.410418 -1.222509 0.310368 -0.949381 -1.582070 -5.466928 -0.745006 0.045427 1.323749 -1.536515 1.776066 -1.050391 4.101283 -1.236960 -3.029011 -1.705751 -0.412359 1.694897 1.965481 -1.979412 4.787025 2.872205 2.229167 0.684641 -2.075892 -1.198030
